{"layer0_weight": [[-0.37054741382598877, -0.13315527141094208, -0.2373586893081665], [0.06067764759063721, 0.45364344120025635, -0.5706204175949097], [-0.25035983324050903, -0.41756728291511536, -0.5274826884269714], [0.03612788766622543, -0.04224007576704025, -0.5492027401924133], [-0.5176504850387573, 0.058440640568733215, -0.37888190150260925], [0.46507009863853455, 0.2437051385641098, 0.4188096821308136], [-0.14254657924175262, 0.3107547163963318, -0.3695947229862213], [-0.015361595898866653, -0.19472438097000122, 0.2744995057582855], [-0.5647856593132019, 0.23521460592746735, 0.3935827314853668], [-0.4548141360282898, -0.4466353952884674, 0.6745402812957764], [0.6085783839225769, -0.011317148804664612, 0.03593660891056061], [-0.2087426781654358, -0.2029808759689331, 0.15705567598342896], [0.4407368004322052, 0.3357093334197998, 0.4672057330608368], [0.0020218570716679096, 0.3064636290073395, -0.0808824896812439], [-0.5200178027153015, -0.3901313841342926, -0.56659996509552], [-0.38467124104499817, 0.44327956438064575, 0.19264303147792816], [-0.09478002786636353, 0.060969289392232895, -0.05723997950553894], [0.4288123548030853, -0.2924516797065735, 0.1352604776620865], [0.0407881960272789, -0.5907596349716187, -0.4521790146827698], [-0.056969836354255676, -0.527981698513031, -0.5036773681640625], [0.5671831965446472, 0.08353764563798904, -0.054793331772089005], [0.34531334042549133, 0.49379605054855347, -0.45383092761039734], [0.27053302526474, 0.5257101058959961, 0.2101404070854187], [-0.29319992661476135, -0.4583449065685272, 0.24419894814491272], [-0.24886292219161987, 0.08553099632263184, -0.14333923161029816], [0.3798993229866028, -0.18498758971691132, -0.2750835418701172], [-0.19967402517795563, -0.09649138152599335, -0.41162535548210144], [-0.21999214589595795, -0.3649367690086365, 0.5121986269950867], [0.5224068760871887, 0.0015319513622671366, 0.4068863093852997], [-0.08808369189500809, -0.3923530578613281, 0.431385338306427], [0.2260882407426834, 0.04770863801240921, 0.0733882412314415], [0.41938093304634094, 0.15747682750225067, 0.3664993345737457], [-0.19207559525966644, 0.04519961029291153, -0.02568327635526657], [0.02485329657793045, -0.12731464207172394, -0.4922627806663513], [-0.31116944551467896, 0.4983547627925873, 0.06338558346033096], [-0.3460250198841095, 0.3136768639087677, 0.20516785979270935], [-0.41872039437294006, 0.5565920472145081, 0.5998630523681641], [-0.3881739675998688, -0.08885456621646881, -0.38206976652145386], [-0.15842874348163605, 0.32184457778930664, 0.06105753779411316], [-0.4696894586086273, -0.3294033706188202, -0.3764598071575165], [-0.6002756953239441, 0.25529617071151733, -0.04950137436389923], [0.3527858257293701, 0.0793130099773407, -0.5761832594871521], [0.2666003704071045, -0.0584968701004982, 0.0672188550233841], [0.15268641710281372, 0.22210054099559784, 0.26500847935676575], [-0.1431037187576294, -0.12467332184314728, -0.44261980056762695], [-0.5554091334342957, 0.3965350091457367, 0.4334021508693695], [-0.18006296455860138, -0.3807356655597687, -0.2563987970352173], [-0.08985286951065063, -0.18243367969989777, -0.14689135551452637], [-0.23178093135356903, -0.05883865803480148, 0.5370792150497437], [0.36200642585754395, 0.44653066992759705, 0.17677128314971924], [0.5665255188941956, -0.2376994788646698, -0.10005251318216324], [-0.39309412240982056, 0.4415757358074188, 0.5096669793128967], [0.09044364094734192, -0.14366544783115387, 0.48935171961784363], [0.14318126440048218, 0.29356005787849426, -0.5291759371757507], [-0.04469720274209976, 0.44533219933509827, 0.3942069709300995], [-0.13835394382476807, -0.5182164907455444, -0.49599844217300415], [-0.17178285121917725, -0.5983977913856506, 0.11320031434297562], [0.12483923137187958, -0.30834317207336426, -0.0999116525053978], [0.4783879220485687, 0.4133096933364868, -0.48210036754608154], [-0.036404091864824295, -0.22538527846336365, -0.5092454552650452], [0.3965461850166321, 0.2758677303791046, 0.21702417731285095], [0.530715823173523, -0.5511527061462402, -0.15264727175235748], [-0.3967432379722595, 0.3530946969985962, -0.32566070556640625], [0.3416028618812561, -0.21885819733142853, 0.3461393415927887], [0.56086266040802, -0.3432193994522095, 0.5582802295684814], [0.004724045749753714, -0.32592254877090454, -0.47234633564949036], [0.1383427381515503, -0.41603711247444153, -0.13482652604579926], [0.33247631788253784, -0.4235481321811676, 0.11974813044071198], [0.1960577368736267, -0.2782596945762634, -0.17285925149917603], [-0.3251194357872009, -0.3246399462223053, -0.4754485487937927], [-0.41869235038757324, 0.2713259160518646, 0.14152827858924866], [-0.5027031302452087, -0.3209838569164276, 0.2977648377418518], [-0.14894825220108032, 0.20245657861232758, -0.2650849223136902], [-0.5081452131271362, 0.19553431868553162, -0.20108942687511444], [0.25205671787261963, -0.40235435962677, 0.2990037798881531], [-0.36039263010025024, -0.3795177936553955, -0.021147534251213074], [-0.22725430130958557, 0.37204644083976746, -0.5467040538787842], [-0.09109415113925934, -0.4122570753097534, 0.08530014753341675], [0.5614492297172546, 0.3595047891139984, -0.5465478897094727], [0.5301283001899719, -0.07902312278747559, 0.4978286623954773], [0.39358600974082947, -0.37151965498924255, -0.340597003698349], [0.054448455572128296, 0.03896480053663254, -0.0539383664727211], [0.4678204357624054, 0.30464670062065125, 0.3922578990459442], [-0.3392040729522705, -0.5246208906173706, 0.5068652629852295], [0.4300096035003662, 0.008147231303155422, 0.34401533007621765], [0.34725421667099, 0.07421508431434631, -0.4554453492164612], [0.467695027589798, -0.33503594994544983, 0.20937159657478333], [0.24927406013011932, -0.23869909346103668, 0.08541300892829895], [0.314861923456192, 0.04647022858262062, 0.4468672573566437], [0.4132808744907379, 0.46621862053871155, -0.2472248077392578], [0.08603223413228989, 0.06586484611034393, 0.22524787485599518], [0.1871081441640854, -0.37743958830833435, 0.23529453575611115], [-0.28183501958847046, 0.36374518275260925, 0.5023510456085205], [-0.37806588411331177, -0.13841186463832855, 0.30015408992767334], [0.37062180042266846, -0.36635127663612366, 0.17520475387573242], [-0.19071929156780243, -0.22576427459716797, -0.19510141015052795], [-0.04485431686043739, 0.42012736201286316, -0.28145086765289307], [0.3701731860637665, 0.4687975347042084, -0.4091974198818207], [0.49810299277305603, 0.14937981963157654, -0.22542902827262878], [-0.3982836604118347, 0.11182055622339249, -0.11146911233663559], [0.5870956182479858, -0.43870607018470764, -0.5773758292198181], [-0.3843128979206085, -0.2907806634902954, 0.5747959613800049], [0.47362518310546875, -0.16251876950263977, 0.052770163863897324], [-0.3420620858669281, 0.4539538025856018, -0.4193245470523834], [0.29118019342422485, 0.5036499500274658, -0.1593552976846695], [0.40018507838249207, 0.08590853959321976, 0.45731332898139954], [-0.18564872443675995, -0.12073834985494614, -0.5519401431083679], [-0.5237218737602234, 0.5822186470031738, 0.36668407917022705], [0.044058267027139664, -0.0032306122593581676, 0.4684692919254303], [-0.562549889087677, -0.2847555875778198, 0.093098483979702], [-0.34129413962364197, 0.31639719009399414, 0.23591820895671844], [0.034620195627212524, -0.42287677526474, -0.3310031592845917], [-0.025221308693289757, -0.19246552884578705, 0.1136459931731224], [0.4913139045238495, 0.35669568181037903, -0.3437548279762268], [0.6089046001434326, 0.4958404302597046, -0.5978348851203918], [0.5048431754112244, 0.21572981774806976, 0.10451371967792511], [-0.6657550930976868, 0.31331557035446167, -0.28489434719085693], [0.26323044300079346, -0.5097637176513672, -0.2441624253988266], [-0.12093230336904526, -0.08960216492414474, -0.15930938720703125], [0.3294208347797394, 0.2267453968524933, 0.45589613914489746], [-0.43211281299591064, -0.45462191104888916, -0.14421382546424866], [-0.28969210386276245, 0.5219120979309082, 0.3422299325466156], [0.07649724185466766, 0.5690715909004211, -0.20383065938949585], [0.42095714807510376, 0.2271053045988083, -0.4529536962509155], [-0.07973910123109818, 0.12359043210744858, -0.4197118878364563], [0.6489512324333191, -0.3212544620037079, 0.45610225200653076], [0.061676040291786194, 0.2275557667016983, -0.22579120099544525], [-0.11552572250366211, 0.16956527531147003, -0.442488431930542], [-0.3053607642650604, 0.1901509016752243, 0.1890115588903427], [-0.09846212714910507, -0.3301851749420166, -0.485238254070282], [-0.24828001856803894, 0.5471838116645813, -0.2127601057291031], [-0.16868707537651062, 0.032708540558815, 0.1605224311351776], [0.6236785054206848, -0.16177122294902802, -0.5681917071342468], [0.5413258671760559, -0.046713054180145264, 0.341100811958313], [-0.5550338625907898, -0.17585857212543488, 0.5586180686950684], [-0.04033156484365463, -0.1360127180814743, 0.14685656130313873], [-0.525399386882782, 0.5704180598258972, 0.5032317638397217], [0.5214462280273438, 0.05794358626008034, -0.1403638869524002], [-0.4745901823043823, 0.13455983996391296, -0.0005262974300421774], [0.21796958148479462, 0.3694230020046234, -0.29117098450660706], [0.46954086422920227, -0.31871238350868225, 0.21086037158966064], [-0.23653697967529297, -0.09032212942838669, -0.4141368269920349], [-0.5547856688499451, -0.38395917415618896, -0.21073870360851288], [-0.5200403332710266, -0.3956162929534912, -0.1382707953453064], [0.5717258453369141, 0.04102139174938202, -0.4558752775192261], [-0.4817674160003662, 0.14652907848358154, 0.4798705279827118], [-0.33875712752342224, -0.27542999386787415, -0.2546275556087494], [-0.31142526865005493, 0.3815043866634369, -0.07465991377830505], [-0.13743522763252258, 0.03520645573735237, 0.21005776524543762], [-0.306405633687973, -0.37400758266448975, 0.4921085834503174]], "layer0_bias": [-0.17257708311080933, -0.43642881512641907, 0.0998212918639183, -0.07020044326782227, -0.33926820755004883, 0.2626269459724426, 0.5239775776863098, -0.13699446618556976, -0.5486776828765869, 0.489888995885849, 0.15782339870929718, 0.4110114276409149, 0.5304885506629944, -0.465729683637619, 0.01338222622871399, -0.2661132216453552, -0.5123944878578186, 0.3765961825847626, 0.18244922161102295, 0.02047848142683506, 0.13146737217903137, 0.5860666632652283, 0.020456694066524506, 0.3194805979728699, 0.26525402069091797, 0.2385532259941101, 0.4316125810146332, -0.33354008197784424, -0.2065449059009552, -0.023077774792909622, 0.4271472096443176, -0.42331841588020325, 0.5565004944801331, 0.06670717149972916, 0.35819199681282043, 0.35762935876846313, -0.2613438367843628, -0.5437509417533875, -0.4410370886325836, -0.3011499047279358, 0.28971853852272034, -0.4446457326412201, -0.500102698802948, 0.202577605843544, 0.20454533398151398, 0.21495306491851807, -0.003673974657431245, 0.3964778780937195, -0.3744940161705017, -0.3625233471393585, 0.20809167623519897, -0.07125648856163025, 0.38169753551483154, -0.20570461452007294, 0.08653499186038971, -0.5622363090515137, 0.0798104852437973, -0.060699425637722015, 0.28503406047821045, 0.48578500747680664, -0.32129260897636414, 0.5430022478103638, 0.260397732257843, 0.11849837005138397, 0.06555970758199692, -0.4418761134147644, 0.4443889260292053, 0.3980677127838135, 0.2531084418296814, 0.4706891179084778, 0.4742937386035919, 0.02055949904024601, -0.5317186713218689, -0.5058164000511169, 0.40715208649635315, -0.23394858837127686, -0.31478917598724365, 0.3278194069862366, -0.2156984955072403, -0.274345338344574, 0.19093671441078186, 0.5502047538757324, -0.3406151533126831, 0.06787185370922089, -0.13831858336925507, 0.5129548907279968, 0.41786065697669983, -0.09145413339138031, 0.01962442509829998, 0.15526793897151947, -0.5162071585655212, -0.37932300567626953, 0.2557064890861511, 0.3945552408695221, 0.19361305236816406, -0.2454749345779419, 0.25395259261131287, 0.40963101387023926, 0.32382816076278687, 0.23585326969623566, 0.4063686430454254, 0.45439228415489197, 0.02658613584935665, -0.22380989789962769, 0.25915297865867615, -0.21831659972667694, 0.23187896609306335, -0.28246554732322693, -0.26877331733703613, -0.5663378834724426, -0.04363735392689705, -0.49799251556396484, -0.033523108810186386, -0.3249414265155792, -0.04476775974035263, 0.5309171676635742, 0.5183512568473816, 1.1345837265253067e-05, 0.41906672716140747, 0.0075624072924256325, 0.486720472574234, 0.3040480613708496, 0.04836512729525566, 0.5299362540245056, -0.1534801572561264, -0.08538061380386353, -0.37838929891586304, -0.18221692740917206, -0.1822769045829773, -0.3243258595466614, 0.4165666699409485, 0.04800529405474663, 0.533772885799408, 0.5273244380950928, 0.5378043055534363, 0.46998754143714905, -0.04716160148382187, 0.4581162929534912, 0.2232230007648468, -0.20740273594856262, 0.34773269295692444, -0.5016250610351562, -0.4169890880584717, -0.30905160307884216, 0.24077759683132172, 0.5763906836509705, -0.0034039723686873913, 0.2360534965991974, 0.03123476728796959, 0.6206725239753723], "layer1_weight": [[-0.05045980587601662, 0.043190810829401016, 0.008202617056667805, 0.0164673812687397, 0.010434076189994812, -0.07469816505908966, -0.07275227457284927, 0.06576664000749588, 0.032478898763656616, 0.05851368606090546, -0.07631676644086838, -0.07332593947649002, -0.024093497544527054, 0.051720231771469116, 0.007200699765235186, -0.033628225326538086, 0.07236387580633163, -0.06039702147245407, -0.05226661637425423, -0.042416658252477646, -0.08900263160467148, -0.03773928061127663, -0.02423274703323841, -0.04697088897228241, -0.021594181656837463, -0.09054923057556152, 0.06975934654474258, 0.0306768286973238, -0.06481891125440598, -0.07204897701740265, -0.07093650102615356, -0.02036050707101822, 0.027474818751215935, 0.06885974109172821, 0.030571864917874336, -0.01399231143295765, 0.03394478186964989, -0.07530224323272705, -0.010272394865751266, 0.07231738418340683, -0.02111995778977871, -0.053800784051418304, 0.023078713566064835, -0.019120359793305397, 0.00746361818164587, -0.04943697899580002, 0.010845419019460678, -0.07267013937234879, 0.08129342645406723, 0.041296739131212234, 0.051452357321977615, 0.05347028747200966, 0.04736999794840813, 0.039691757410764694, -0.04300126060843468, 0.0551995113492012, 0.07578286528587341, -0.07399537414312363, 0.03131115436553955, 0.039093732833862305, 0.07423162460327148, 0.07814140617847443, -0.08895240724086761, -0.03129338100552559, -0.07968020439147949, 0.05125783756375313, -0.05442315712571144, -0.039328575134277344, 0.013802552595734596, -0.07577298581600189, -0.07011354714632034, 0.05602407827973366, -0.07208661735057831, -0.07013711333274841, 0.006602833513170481, -0.055564116686582565, 0.037962283939123154, -0.050698135048151016, 0.005972541403025389, 0.05609916150569916, 0.06319611519575119, -0.047965534031391144, -0.03937292844057083, 0.05374656990170479, -0.04681779071688652, 0.0594804622232914, -0.025126203894615173, -0.0699022114276886, 0.027148758992552757, 0.01999112032353878, -0.028323614969849586, 0.041652899235486984, 0.05135997012257576, 0.0068871681578457355, 0.045018892735242844, 0.06379274278879166, 0.023855431005358696, 0.03959393873810768, 0.05671476945281029, 0.03028913587331772, -0.05645991861820221, -0.03690367192029953, -0.021764490753412247, 0.01995609514415264, 0.054569311439991, -0.02098187804222107, -0.05113627389073372, 0.04223768040537834, -0.06544621288776398, 0.03236812353134155, 0.04426729306578636, -0.025286803022027016, -0.009350262582302094, -0.06196453049778938, 0.001826006337068975, -0.0011988867772743106, -0.010524753481149673, 0.030853811651468277, 0.02543586492538452, -0.06106506660580635, 0.032794591039419174, -0.03804423287510872, -0.07979700714349747, -0.007443799637258053, 0.026573047041893005, -0.03329683467745781, 0.004206881858408451, -0.09070083498954773, -0.0660335123538971, -0.07819060236215591, -0.07793541997671127, 0.07926473766565323, -0.059895869344472885, -0.04497521370649338, 0.01670396700501442, 0.06819517910480499, 0.03360825031995773, -0.051921527832746506, -0.02732844091951847, -0.036325037479400635, -0.0792674720287323, 0.07483941316604614, -0.004616939928382635, 0.04725845158100128, 0.009923017583787441, -0.03651084378361702, 0.06222013384103775, 0.04798128455877304, -0.09172465652227402, 0.0029304404743015766], [-0.019342053681612015, 0.0654337927699089, -0.028894692659378052, 0.052952468395233154, 0.014454563148319721, -0.023201024159789085, -0.03579746186733246, -0.019786713644862175, -0.0361909344792366, -0.029619168490171432, -0.0400204136967659, 0.03220152482390404, 0.04120107367634773, 0.03895750641822815, 0.040647849440574646, 0.020986413583159447, 0.03549603000283241, -0.03096497617661953, -0.05506562814116478, 0.019327890127897263, 0.015918992459774017, 0.07116903364658356, -0.06839888542890549, -0.005982565227895975, 0.06951706111431122, 0.022553080692887306, -0.0031995042227208614, -0.005547044333070517, -0.02641105093061924, 0.06816188991069794, -0.06946135312318802, 0.07542230188846588, 0.03096764348447323, -0.06901273131370544, -0.053715579211711884, 0.08008581399917603, -0.060230694711208344, -0.06106889620423317, 0.050389364361763, 0.07649356126785278, -0.06442511081695557, -0.08070671558380127, -0.06841126829385757, -0.08158497512340546, 0.030593248084187508, 0.07287018746137619, 0.058203425258398056, 0.01788487657904625, -0.07911347597837448, -0.00047854252625256777, -0.04321286082267761, 0.04945843294262886, -0.04981731250882149, -0.04414884373545647, -0.008899576961994171, 0.013374506495893002, -0.03287728875875473, 0.05072296783328056, 0.020309844985604286, 0.01642031967639923, 0.04833373799920082, -0.030156033113598824, 0.05785819888114929, -0.04563114419579506, 0.028501063585281372, 0.021762778982520103, 0.05133287236094475, 0.01287765521556139, -0.06312718987464905, 0.049893368035554886, 0.07589058578014374, -0.02565147541463375, 0.0645400881767273, 0.05433171987533569, -0.014281055890023708, 0.0015090465312823653, -0.034426912665367126, -0.05726688727736473, -0.04772704467177391, -0.030070077627897263, 0.03421686589717865, 0.005697532091289759, 0.05752324312925339, 0.06263826042413712, -0.05835691839456558, -0.016298789530992508, -0.03511640802025795, -0.07418180257081985, -0.01852327026426792, -0.06536432355642319, 0.04527854174375534, 0.0666184201836586, -0.02133234776556492, -0.07887828350067139, 0.020588083192706108, -0.059651073068380356, -0.025361886247992516, -0.0052019464783370495, 0.05268595740199089, -0.03652125597000122, -0.014402927830815315, -0.06086224690079689, -0.041808564215898514, 0.0181869026273489, -0.05644167959690094, -0.039576318114995956, 0.07569429278373718, 0.07557836920022964, 0.07295253872871399, -0.024295710027217865, -0.04277067258954048, 0.029965491965413094, -0.028206326067447662, -0.05220159515738487, -0.01311784703284502, 0.007641398813575506, 0.026739582419395447, -0.0538647435605526, -0.07953639328479767, 0.011113866232335567, -0.04772675409913063, 0.03177919611334801, 0.03223593533039093, -0.04340345039963722, -0.046969182789325714, -0.004944702610373497, 0.012035823427140713, 0.043350327759981155, 0.06725994497537613, 0.03031683899462223, -0.04967100918292999, -0.02578527107834816, -0.043606314808130264, -0.009110363200306892, -0.08146140724420547, -0.03625510632991791, -0.08026550710201263, -0.07873346656560898, 0.013397847302258015, -0.0789656788110733, 0.030785979703068733, 0.05864301323890686, 0.009945927187800407, 0.0526968315243721, 0.005102928727865219, 0.01270015724003315, 0.07938878983259201, -0.02028767205774784, -0.039565443992614746, -0.03867344930768013], [0.0114859938621521, 0.030944665893912315, -0.017019109800457954, 0.07416990399360657, 0.04595865309238434, 0.026485854759812355, 0.02547725848853588, 0.046905893832445145, 0.06951279193162918, 0.09267215430736542, -0.05958045274019241, 0.14793603122234344, 0.10170579701662064, -0.05230634659528732, -0.06406563520431519, -0.0017365755047649145, -0.062159214168787, 0.0658438429236412, 0.09624013304710388, 0.020623309537768364, -0.03341793268918991, 0.09978875517845154, 0.08361326903104782, 0.07659809291362762, -0.01455390639603138, -0.03228217363357544, 0.02399316430091858, -0.007480456959456205, -0.10649771243333817, 0.042520344257354736, 0.1017046868801117, -0.09530825912952423, 0.10560360550880432, -0.012366480194032192, 0.08213092386722565, -0.0003181095526088029, 0.0666634663939476, -0.06894247978925705, -0.06433118879795074, -0.059821005910634995, 0.14531078934669495, -0.04333958029747009, -0.04482383653521538, -0.04595565050840378, 0.03183187544345856, 0.14689083397388458, -0.016710862517356873, 0.08018135279417038, 0.07816130667924881, -0.08992467075586319, -0.025132866576313972, 0.09980180114507675, 0.008569910190999508, 0.02352774329483509, 0.06559593975543976, -0.04449452459812164, -0.04539681226015091, 0.030233867466449738, -0.05555735155940056, 0.04890437796711922, -0.16454876959323883, -0.06800294667482376, 0.024887733161449432, -0.07071176171302795, -0.12420686334371567, 0.059170834720134735, 0.06972820311784744, 0.06537947058677673, 0.01489739678800106, 0.05706183984875679, 0.019802428781986237, 0.005308378022164106, -0.05831507593393326, 0.02785167098045349, 0.08000532537698746, -0.008642264641821384, -0.04873504117131233, 0.10851488262414932, -0.05443660914897919, -0.14604820311069489, -0.08660423010587692, 0.10408967733383179, -0.0023435947950929403, 0.10984618216753006, -0.11609093844890594, 0.09324218332767487, -0.04833255335688591, -0.04839231073856354, -0.034270279109478, 0.03175685927271843, 0.07753963768482208, -0.007814088836312294, 0.1310761421918869, 0.057942938059568405, -0.04441292583942413, 0.05835985764861107, 0.07126956433057785, -0.009998534806072712, 0.004970577545464039, 0.09165571630001068, -0.07662419974803925, 0.17882025241851807, -0.058125369250774384, 0.005108420737087727, 0.0790817067027092, -0.22287152707576752, 0.1011284589767456, 0.11039542406797409, 0.1066395491361618, -0.02438811957836151, -0.003907334990799427, -0.04578370600938797, -0.05220233276486397, -0.1465912014245987, -0.02149077132344246, 0.05327652394771576, 0.011773478239774704, 0.038364000618457794, 0.04805739223957062, 0.04995403811335564, -0.031000986695289612, 0.09399513900279999, 0.02088944986462593, 0.06921751797199249, -0.027719518169760704, -0.15396076440811157, 0.038378991186618805, -0.04373439773917198, 0.08869142085313797, -0.06267008185386658, 0.10651033371686935, 0.1230422854423523, -0.05969318002462387, 0.0359497107565403, 0.14979220926761627, 0.06188931688666344, 0.08892270922660828, 0.0865972712635994, 0.08048112690448761, 0.014283555559813976, -0.0317869633436203, -0.058064285665750504, -0.023104790598154068, 0.06900195777416229, -0.0798402652144432, 0.08511172980070114, -0.04509224370121956, -0.012071290984749794, 0.18780158460140228, 0.0993809625506401], [0.07025807350873947, 0.06622796505689621, -0.005664175841957331, -0.03257104381918907, -0.01732122339308262, -0.007290072739124298, 0.05851355567574501, -0.04339361935853958, 0.07840927690267563, 0.08084257692098618, 0.02085459604859352, 0.029694637283682823, 0.05299424007534981, -0.06248094141483307, -0.019399937242269516, -0.04654872044920921, 0.08044561743736267, -0.08023659884929657, 0.056078895926475525, 0.013118722476065159, -0.049639806151390076, 0.013991419225931168, -0.0274986419826746, -0.03367085009813309, 0.021286070346832275, -0.08055166155099869, -0.08549121767282486, 0.07570230960845947, 0.0007152107427828014, 0.0801772028207779, 0.031605880707502365, -0.025439929217100143, -0.08464646339416504, 0.0035828151740133762, -0.05607233941555023, 0.02042377181351185, 0.010180734097957611, 0.06440973281860352, 0.05705076456069946, 0.0701865702867508, -0.06887970119714737, 0.06709317117929459, 0.005428559612482786, 0.058536846190690994, 0.056620653718709946, -0.057322271168231964, 0.011664941906929016, -0.056433092802762985, -0.06575342267751694, -0.005061086732894182, 0.04575633257627487, -0.01795039512217045, 0.017894992604851723, -0.044903263449668884, 0.026969322934746742, 0.052095890045166016, 0.08131565153598785, 0.015510276891291142, -0.07976216077804565, -0.008998171426355839, 0.04890961945056915, 0.010507580824196339, -0.08206892013549805, 0.06693088263273239, -0.057856347411870956, -0.07560236006975174, -0.03672327846288681, 0.020205536857247353, 0.0629974752664566, -0.06330925226211548, 0.04156956821680069, 0.01192813366651535, 0.08163822442293167, -0.0048180026933550835, -0.07459956407546997, 0.032459694892168045, -0.017322909086942673, 0.0011133785592392087, 0.006951829884201288, 0.04654119908809662, 0.0746724084019661, 0.03581859916448593, -0.07632271945476532, -0.0293472558259964, 0.009177906438708305, 0.028879964724183083, -0.05697557330131531, -0.04199805483222008, 0.06617879122495651, -0.03450402244925499, 0.02221812680363655, 0.01122924592345953, 0.032780859619379044, -0.04976685717701912, -0.005751174874603748, -0.05775146186351776, 0.01386461965739727, -0.08456841856241226, -0.09066840261220932, -0.03043399192392826, -0.07398071140050888, -0.06784513592720032, 0.052600570023059845, -0.02809710055589676, 0.011091305874288082, 0.031003188341856003, 0.06941589713096619, 0.03576568886637688, 0.04394323751330376, 0.036274924874305725, -0.02493022382259369, -0.014595327898859978, 0.07474197447299957, -0.015915967524051666, 0.058354269713163376, -0.037402667105197906, -0.026698920875787735, 0.03047781065106392, 0.04638559743762016, -0.04213328659534454, -0.0731850117444992, -0.025091420859098434, 0.042763128876686096, 0.017912650480866432, -0.01400046143680811, -0.02417472004890442, -0.03460622951388359, 0.06282202899456024, 0.07739192247390747, 0.036534689366817474, -0.01031519751995802, -0.012987818568944931, -0.08353464305400848, -0.01756376586854458, -0.023843839764595032, 0.022940216585993767, -0.08845090121030807, 0.01583521068096161, 0.02018050104379654, 0.06578997522592545, -0.08898523449897766, 0.0021220073103904724, -0.031545523554086685, 0.019237030297517776, -0.022264748811721802, -0.0779099091887474, -0.025451794266700745, -0.056720562279224396, -0.08404018729925156, -0.017125777900218964], [0.007933041080832481, 0.04981115087866783, 0.006650957278907299, -0.07239016890525818, 0.047875527292490005, -0.051656413823366165, 0.012136818841099739, -0.05516800656914711, 0.06734800338745117, -0.018923958763480186, 0.04574674740433693, 0.020790934562683105, 0.06808394193649292, -0.019262069836258888, 0.03379024192690849, -0.13402524590492249, 0.0806916356086731, -0.00038495694752782583, -0.06395311653614044, -0.02729456126689911, -0.03720974549651146, -0.03889557346701622, 0.05805199220776558, -0.004997813142836094, 0.014062856324017048, 0.12342669069766998, -0.05757894739508629, 0.021809089928865433, 0.15712860226631165, -0.09195272624492645, 0.0848103016614914, 0.06293140351772308, -0.046191781759262085, -0.05022606998682022, 0.05613267049193382, -0.03488019108772278, -0.08432630449533463, -0.06961881369352341, 0.02606813795864582, 0.06641446053981781, 0.030593758448958397, 0.06691591441631317, -0.013986990787088871, -0.027364354580640793, -0.082110196352005, -0.09179887175559998, -0.07124166935682297, 0.00221543712541461, -0.04299444332718849, -0.02641087956726551, 0.08805125206708908, -0.08203995227813721, -0.029308835044503212, -0.023486439138650894, -0.05243535339832306, 0.05836942791938782, 0.003463735803961754, -0.034012533724308014, 0.0004425623919814825, -0.08147415518760681, 0.14893145859241486, 0.018226847052574158, 0.016762491315603256, 0.1356021612882614, 0.12908565998077393, 0.07410242408514023, 0.05939480662345886, 0.001476906705647707, 0.07052481174468994, 0.024673497304320335, -0.016446851193904877, -0.08994008600711823, -0.058484796434640884, -0.029695039615035057, -0.016562452539801598, -0.01737632416188717, -0.008786789141595364, -0.09145311266183853, 0.09154969453811646, 0.2410992532968521, 0.13942615687847137, 0.030328257009387016, 0.07411058992147446, -0.026682378724217415, 0.049336016178131104, 0.09200490266084671, 0.03902248665690422, -0.03912981227040291, -0.0542571060359478, -0.045647162944078445, 0.02324545755982399, 0.007030423730611801, 0.04573576897382736, -0.10957110673189163, 0.049919210374355316, 0.0464051328599453, -0.03197786957025528, 0.004400130361318588, 0.07221495360136032, 0.02618841640651226, -0.022913416847586632, -0.1618088036775589, 0.13066793978214264, -0.03810077905654907, 0.020411841571331024, 0.19033752381801605, 0.06744704395532608, 0.029348574578762054, -0.07315859943628311, 0.06042972579598427, -0.046704065054655075, 0.046904321759939194, 0.10526056587696075, 0.22389069199562073, 0.1099497526884079, -0.009522804990410805, -0.08216457813978195, -0.09399636089801788, 0.006794547196477652, -0.057422760874032974, -0.006412327289581299, -0.019431231543421745, 0.012674457393586636, 0.08722145110368729, 0.037690065801143646, 0.1789509356021881, 0.08641673624515533, -0.0019116296898573637, -0.10357939451932907, 0.044856198132038116, -0.05236970633268356, -0.10017287731170654, -0.006289126817137003, 0.08979083597660065, -0.04949358105659485, 0.07307606935501099, 0.056839052587747574, 0.05700940638780594, -0.1083841621875763, -0.02776910737156868, 0.10542420297861099, -0.06740822643041611, 0.025284038856625557, -0.08019459247589111, -0.005148550495505333, 0.009063477627933025, -0.005527178291231394, 0.05527028068900108, -0.12870673835277557, -0.11488080024719238], [0.07494160532951355, 0.010747193358838558, 0.04027920588850975, 0.03976495936512947, 0.05557170882821083, -0.012924589216709137, 0.044808100908994675, 0.07009372115135193, -0.04885642230510712, -0.012951143085956573, -0.040971703827381134, -0.011636844836175442, -0.011931526474654675, 0.05461924523115158, -0.04360868036746979, 0.009203552268445492, -0.0025830394588410854, -0.05337415263056755, 0.06759318709373474, -0.05589831992983818, 0.05651092529296875, 0.047798916697502136, 0.044753361493349075, 0.030415769666433334, -0.015523305162787437, 0.05277743563055992, 0.04525138810276985, 0.08076964318752289, 0.0658605769276619, 0.019967958331108093, 0.0325109101831913, -0.015268323943018913, 0.04365886002779007, 0.04332965239882469, 0.05581796169281006, -0.024271735921502113, -0.06558384746313095, 0.06340531259775162, -0.07027101516723633, -0.07560793310403824, -0.04717345908284187, 0.05496768280863762, -0.0025433660484850407, 0.015759490430355072, 0.03719101473689079, -0.012732489965856075, 0.04367675632238388, 0.02841768227517605, -0.022764647379517555, 0.04617196321487427, -0.0342010073363781, -0.08277779817581177, 0.00994403101503849, -0.05805503949522972, 0.05710161104798317, 0.06362546980381012, -0.016285162419080734, -0.014936542138457298, 0.06446857005357742, 0.024616822600364685, -0.00817863643169403, -0.004344658926129341, -0.08251222968101501, -0.0837751254439354, 0.010919628664851189, -0.047264933586120605, 0.006941081490367651, -0.08716664463281631, -0.01699395664036274, 0.06699765473604202, 0.04044555127620697, 0.07737981528043747, -0.07920276373624802, 0.027192942798137665, -0.051060982048511505, 0.028901563957333565, 0.06686133146286011, -0.007112398743629456, -0.015095146372914314, 0.026499634608626366, 0.015254405327141285, 0.013108565472066402, 0.01673945225775242, 0.058119289577007294, 0.05117912217974663, -0.019344940781593323, -0.058578792959451675, 0.02230033464729786, 0.031493548303842545, 0.047193098813295364, 0.027810128405690193, -0.040736325085163116, -0.0712362751364708, -0.008554472588002682, -0.019412893801927567, -0.02958155795931816, -0.05436907708644867, -0.06692720949649811, -0.06990921497344971, 0.04327007755637169, -0.0693771243095398, -0.08711384981870651, -0.031178874894976616, 0.07005240768194199, 0.05351021885871887, -0.062393683940172195, -0.050537556409835815, 0.016236495226621628, -0.06534767895936966, 0.007946735247969627, 0.009196572937071323, 0.08089379221200943, -0.05672035366296768, -0.02340061590075493, -0.05433042719960213, 0.013394905254244804, 0.04886508733034134, -0.06377258896827698, 0.02169097028672695, -0.053416602313518524, -0.03219503536820412, -0.01761353574693203, 0.026702046394348145, -0.04585638269782066, 0.043565329164266586, 0.06453905254602432, -0.07976525276899338, -0.05761822685599327, 0.06257613748311996, -0.00501044187694788, -0.023134570568799973, -0.061983224004507065, -0.045503806322813034, 0.025970134884119034, 0.054590847343206406, -0.01754465326666832, 0.02867622673511505, -0.09128301590681076, 0.021865349262952805, 0.04242713004350662, -0.056481387466192245, 0.02297506295144558, 0.002232218626886606, -0.046628087759017944, -0.07021475583314896, -0.029112815856933594, -0.05015099421143532, -0.08119330555200577, 0.0021943324245512486, 0.04526762664318085], [-0.03502783179283142, 0.015077948570251465, -0.06922411918640137, -0.07097633183002472, -0.026513932272791862, 0.061546001583337784, -0.06238478794693947, -0.012865293771028519, -0.048016175627708435, 0.06210227310657501, 0.023628296330571175, 0.013168605975806713, -0.07008874416351318, -0.05864561349153519, 0.07560251653194427, -0.033849362283945084, 0.021631192415952682, -0.08797261118888855, -0.05723648890852928, 0.05128049477934837, 0.07060712575912476, -0.020365294069051743, -0.06778614223003387, 0.05889500305056572, 0.07238668948411942, -0.02617764100432396, 0.004155246075242758, 0.00802110880613327, -0.0864219069480896, -0.0633397325873375, 0.06472421437501907, -0.01280522532761097, 0.0623893141746521, 0.06819668412208557, -0.08614743500947952, 0.023723725229501724, -0.05797426030039787, 0.07667666673660278, 0.04948428273200989, 0.0509338304400444, -0.07850845903158188, 0.030080102384090424, 0.04473380371928215, -0.04353567585349083, -0.03780875355005264, -0.001354674925096333, 0.0622548907995224, -0.0325278602540493, 0.06952978670597076, 0.05811013653874397, 0.06522024422883987, 0.05023610219359398, -0.0872553363442421, 0.01571604050695896, 0.04044188931584358, -0.04390334710478783, 0.01989438384771347, 0.002441554795950651, -0.05911860242486, -0.009881973266601562, -0.02740292064845562, -0.07473184913396835, -0.05207002907991409, 0.027321744710206985, 0.05628732219338417, 0.049862369894981384, 0.019555680453777313, 0.049960944801568985, -0.03263530135154724, 0.05593324452638626, 0.0036018025130033493, 0.03965478762984276, -0.07533399760723114, 0.05513770505785942, -0.07212986052036285, -0.0060308524407446384, 0.04398593679070473, 0.04189598187804222, 0.027127621695399284, 0.046173907816410065, 0.06533890217542648, 0.01347965095192194, -0.015225888229906559, -0.024176407605409622, -0.09024249017238617, -0.0779307559132576, 0.021445918828248978, -0.02748403139412403, -0.06292670220136642, -0.0015515863196924329, -0.08054965734481812, -0.03119553066790104, 0.01106563676148653, 0.02182205207645893, -0.035002972930669785, -0.026471436023712158, -0.01727503165602684, 0.011594852432608604, -0.004549381788820028, 0.024712348356842995, 0.021707486361265182, 0.026079775765538216, 0.03661344200372696, 0.02097870409488678, 0.04366927221417427, 0.018368437886238098, -0.07236767560243607, -0.021718889474868774, -0.012171936221420765, 0.062040943652391434, 0.028110714629292488, -0.023001041263341904, -0.019749591127038002, -0.05345258116722107, 0.038868993520736694, -0.05864015966653824, -0.02491339109838009, -0.0555293895304203, -0.011693875305354595, 0.05940552055835724, 0.06729204207658768, -0.0013252939097583294, -0.0824667438864708, -0.05877489224076271, 0.010259965434670448, -0.06415730714797974, 0.06805278360843658, -0.05304240435361862, -0.011542282067239285, 0.02073475532233715, -0.047747302800416946, 0.008125090040266514, 0.011649041436612606, 0.012728803791105747, -0.0331711582839489, -0.05796300992369652, -0.06994970887899399, -0.08116219937801361, 0.015287382528185844, 0.0263363067060709, 0.021323010325431824, 0.07244692742824554, 0.06443528085947037, 0.0444323793053627, 0.05174800753593445, 0.02627694606781006, 0.07810240238904953, -0.06941170245409012, -0.04538673534989357, -0.050839412957429886], [0.03308878466486931, 0.11063246428966522, -0.02455950528383255, 0.01728801429271698, -0.01048494316637516, 0.06281794607639313, -0.05231255292892456, -0.0525948591530323, -0.048001352697610855, -0.10562366247177124, 0.0177778247743845, -0.14822642505168915, 0.049594391137361526, -0.02608388103544712, 0.0465172715485096, -0.1224360391497612, 0.021373208612203598, 0.0768466666340828, -0.026120930910110474, -0.04124736785888672, 0.0785875990986824, -0.06111248582601547, -0.012110796757042408, 0.00427553616464138, -0.12630394101142883, 0.08828828483819962, -0.1138114184141159, 0.0509016327559948, 0.16494983434677124, -0.05419057980179787, 0.017451390624046326, 0.11445542424917221, 0.003890840569511056, 0.028543470427393913, 0.0012570619583129883, -0.04186936467885971, 0.006793400272727013, 0.0282896738499403, 0.09044112265110016, -0.00032220466528087854, -0.14557743072509766, -0.02604791708290577, -0.011575647629797459, 0.06922043859958649, 0.027745937928557396, -0.10493387281894684, 0.06190311908721924, 0.006262804381549358, -0.0799861028790474, 0.12974894046783447, 0.11976679414510727, -0.12174500524997711, 0.032310403883457184, 0.10581623017787933, 0.039412692189216614, 0.06413526087999344, 0.020762169733643532, -0.040111325681209564, -0.018944809213280678, -0.012250406667590141, 0.1275157630443573, 0.08678819984197617, 0.031188583001494408, 0.108576700091362, 0.09025713801383972, -0.07659684121608734, 0.056863173842430115, -0.030080324038863182, 0.07613090425729752, 0.04025498032569885, -0.034671567380428314, -0.032983046025037766, -0.01796002686023712, 0.06771709024906158, -0.03939441964030266, 0.06377026438713074, -0.03126576542854309, -0.011265769600868225, 0.05163177475333214, 0.13563399016857147, 0.12202418595552444, 0.06251341849565506, 0.10189427435398102, -0.03581669181585312, 0.11477616429328918, 0.027093015611171722, 0.06811617314815521, 0.02053314633667469, 0.08369944989681244, 0.04202421382069588, 0.06356418877840042, 0.047599907964468, -0.013936677947640419, -0.13799326121807098, 0.033840280026197433, -0.08094214648008347, 0.04728692024946213, -4.559342050924897e-05, 0.08325430005788803, -0.047849759459495544, -0.027091268450021744, -0.11067540943622589, 0.09422599524259567, -0.04062847048044205, 0.08700582385063171, 0.15112769603729248, -0.07514727860689163, -0.03922175616025925, -0.0411202535033226, -0.0010692819487303495, -0.11817814409732819, -0.046295974403619766, 0.07810423523187637, 0.20400014519691467, 0.1094248816370964, -0.05469345673918724, -0.1005435362458229, -0.08443743735551834, 0.009607289917767048, 0.07344087958335876, -0.06783808022737503, -0.01585366390645504, -0.002094453666359186, 0.05897603556513786, -0.008762490935623646, 0.09634535014629364, 0.07590872049331665, -0.0643610805273056, 0.036643609404563904, -0.01317458227276802, 0.00038779398892074823, -0.13450150191783905, 0.1041937842965126, 0.09643951058387756, -0.09909447282552719, -0.09897550940513611, -0.04656099155545235, 0.08111120015382767, -0.08820950984954834, 0.11896760761737823, 0.05967613309621811, 0.030310016125440598, -0.0076654693111777306, 0.029189856722950935, 0.03182227909564972, -0.002207726240158081, -0.017119694501161575, -0.10335583239793777, -0.14495304226875305, -0.11302037537097931], [0.06838292628526688, -0.12081792950630188, 0.026392119005322456, 0.028730304911732674, -0.0615946464240551, 0.07242205739021301, 0.08049178123474121, 0.0344732291996479, -0.016748465597629547, 0.13252569735050201, -0.04185883700847626, 0.022438932210206985, 0.01775803416967392, -0.05860638618469238, 0.00648529501631856, 0.10713574290275574, -0.0001730890217004344, 0.031027525663375854, 0.0895480215549469, -0.07819173485040665, -0.07707130908966064, 0.030665580183267593, 0.05112560838460922, 0.15453270077705383, 0.04696647450327873, -0.07320202142000198, 0.09804315119981766, 0.05516267195343971, -0.23635154962539673, 0.005170891527086496, 0.030786577612161636, -0.11153487861156464, 0.08880754560232162, 0.01618429832160473, 0.023352527990937233, 0.0025318602565675974, 0.12733112275600433, 0.055346835404634476, -0.08638723194599152, -0.021904729306697845, 0.13726188242435455, 0.019936587661504745, 0.06891382485628128, 0.043201904743909836, 0.058503877371549606, 0.033779095858335495, -0.04616257920861244, 0.08556847274303436, -0.06407774984836578, -0.035224102437496185, 0.05549423769116402, 0.12450451403856277, -0.023627104237675667, 0.013489474542438984, -0.007536016870290041, 0.054477714002132416, -0.014616057276725769, -0.02345224842429161, 0.0347231924533844, 0.141819030046463, -0.11069127172231674, -0.03038742206990719, 0.13286170363426208, -0.041216395795345306, -0.1447097212076187, 0.030835803598165512, 0.025527631863951683, -0.0715440884232521, -0.028944572433829308, 0.0473528616130352, 0.029121926054358482, -0.02429286204278469, 0.021633226424455643, -0.033741701394319534, 0.006343589164316654, 0.020272478461265564, -0.03898768872022629, 0.03280096501111984, -0.08953658491373062, -0.10637633502483368, 0.015431760810315609, 0.07615987956523895, -0.06937218457460403, 0.026582885533571243, -0.11530181765556335, 0.015282061882317066, 0.06470486521720886, -0.0836917981505394, -0.01158458273857832, 0.037197813391685486, -0.01661333441734314, 0.006249707657843828, 0.1161108985543251, 0.210447758436203, -0.059178296476602554, 0.03449998050928116, 0.035624224692583084, 0.054516974836587906, 0.0163939967751503, 0.15940724313259125, 0.06011687591671944, 0.1163179948925972, -0.17427361011505127, -0.01431015133857727, -0.04971820116043091, -0.19715063273906708, 0.07633807510137558, 0.05876027047634125, 0.020850028842687607, 0.0533222034573555, 0.09608561545610428, -0.016245314851403236, -0.03716089949011803, -0.1412888467311859, 0.060245007276535034, 0.08828696608543396, 0.13341283798217773, -0.039012227207422256, -0.0046755969524383545, -0.005578193347901106, 0.05116637051105499, 0.11065306514501572, 0.08514731377363205, 0.001500326907262206, -0.052139218896627426, -0.1766771376132965, -0.05482590198516846, 0.0118173873052001, 0.06156370788812637, 0.044183406978845596, 0.09269412606954575, 0.09195762872695923, 0.08852125704288483, -0.005539281759411097, 0.061198022216558456, 0.08454903215169907, -0.014007113873958588, -0.031005337834358215, 0.178775817155838, -0.026442864909768105, 0.0810672864317894, -0.02428697980940342, 0.061288218945264816, -0.0054679992608726025, 0.054509446024894714, 0.10710341483354568, 0.017195915803313255, -0.03182806819677353, 0.0624840185046196, 0.07347884774208069], [-0.043862029910087585, -0.0764925479888916, 0.07747027277946472, 0.03371365740895271, -0.01596042700111866, -0.04090642184019089, -0.08409200608730316, 0.07374487817287445, 0.06954222172498703, 0.0780797228217125, -0.03820423781871796, -0.03669233247637749, -0.08295003324747086, 0.025503119453787804, 0.06499950587749481, 0.01243642158806324, 6.084347114665434e-05, 0.00019543604867067188, -0.08112567663192749, 0.06673836708068848, 0.06363382935523987, -0.016319993883371353, -0.021928781643509865, -0.07791735231876373, -0.035792697221040726, 0.02698465995490551, -0.018734393641352654, 0.051489412784576416, 0.02220255136489868, -0.028243351727724075, 0.002436096081510186, 0.03962290287017822, -0.09126903861761093, 0.07254703342914581, -0.0836821123957634, -0.05805157124996185, 0.006276367697864771, 0.03889236971735954, 0.03731205686926842, -0.06328416615724564, -0.03890452906489372, 0.027128079906105995, 0.07535472512245178, -0.051069676876068115, -0.06763240694999695, 0.054167911410331726, 0.048035878688097, 0.005765657871961594, -0.023499848321080208, 0.028556950390338898, -0.026262316852808, -0.05879934877157211, 0.03097091242671013, -0.012215618044137955, 0.016592131927609444, 0.020594634115695953, -0.029381927102804184, 0.08160531520843506, -0.028100473806262016, 0.007328671868890524, 0.010184108279645443, 0.0682108998298645, -0.0314723402261734, 0.05084490403532982, 0.06127798184752464, -0.0323478989303112, -0.022722367197275162, 0.0516929104924202, 0.0154817970469594, -0.08096440881490707, 0.01210217084735632, -0.014566507190465927, -0.03979578614234924, -0.06448547542095184, -0.030040031298995018, -0.042884379625320435, 0.0001020254785544239, 0.06013321503996849, -0.015642283484339714, -0.01323030237108469, -0.05684048309922218, -0.061228614300489426, -0.0762680396437645, -0.016485806554555893, 0.0018291356973350048, 0.018688278272747993, 0.0104311378672719, 0.013183566741645336, 0.06342597305774689, 0.036934029310941696, 0.02510395273566246, -0.05761737376451492, 0.053749363869428635, -0.03064339980483055, -0.06677737832069397, 0.0371851809322834, -0.004952333401888609, 0.016484195366501808, 0.06459243595600128, 0.025327177718281746, 0.030511733144521713, 0.0436864010989666, 0.005578955635428429, 0.035225868225097656, -0.05569251626729965, 0.009528948925435543, 0.044423870742321014, 0.0421181358397007, 0.041279301047325134, 0.07299981266260147, 0.05948413535952568, 0.005764488130807877, 0.03555748611688614, -0.010756726376712322, -0.029261182993650436, 0.0255314689129591, -0.06193634495139122, -0.017339445650577545, 0.05592992156744003, -0.002967188600450754, -0.03972673788666725, 0.06834138929843903, 0.022100020200014114, 0.04675612226128578, 0.07505986094474792, 0.03853609412908554, 0.03916533663868904, 0.056460190564394, 0.04930232837796211, -0.05531550571322441, -0.04745195060968399, 0.059001337736845016, -0.05156462639570236, -0.03173789381980896, 0.05403956025838852, -0.06281892210245132, 0.001430033938959241, -0.06397286057472229, -0.01945706270635128, -0.08147232234477997, -0.051395706832408905, 0.027012554928660393, -0.003668722230941057, -0.04679068177938461, 0.06703224033117294, -0.08289141207933426, 0.04436647519469261, -0.0912436693906784, 0.019390368834137917, -0.005479241255670786], [0.047711025923490524, 0.008199677802622318, 0.05286016687750816, -0.003801514860242605, 0.07673662155866623, -0.00914712157100439, 0.033588867634534836, -0.01337667740881443, 0.053630802780389786, 0.18146908283233643, -0.02470533549785614, 0.14506253600120544, 0.08529394865036011, -0.1364610493183136, 0.04343132674694061, 0.014315839856863022, 0.05901478976011276, -0.09418978542089462, 0.12723185122013092, 0.03315373510122299, -0.10556068271398544, 0.00966030452400446, -0.0018011291977018118, 0.02990349382162094, 0.11795777827501297, -0.12241769582033157, 0.07520770281553268, -0.016750292852520943, -0.18825320899486542, -0.023217948153614998, 0.08762422949075699, -0.13593816757202148, -0.015769029036164284, 0.10740849375724792, -0.02184126153588295, 0.08705972135066986, 0.060481566935777664, 0.008205370977520943, -0.09446106851100922, 0.01301994826644659, 0.16003826260566711, -0.041187088936567307, 0.032912831753492355, -0.03928440436720848, 0.1288963258266449, 0.15272139012813568, -0.042627476155757904, 0.09390786290168762, -0.027044450864195824, -0.014113306067883968, -0.02467450313270092, -0.010499181225895882, 0.040543943643569946, -0.04588351398706436, -0.04005642980337143, -0.034643303602933884, -0.033405158668756485, -0.049173858016729355, -0.07711082696914673, 0.02312786504626274, -0.1333235204219818, -0.1204933226108551, 0.09362366050481796, -0.04039609804749489, -0.15327958762645721, 0.000635668751783669, -0.04919121786952019, -0.046366527676582336, -0.027539171278476715, 0.09645460546016693, 0.08731299638748169, 0.02418898046016693, 0.054795458912849426, -0.05509653314948082, 0.03190717101097107, 0.005837634671479464, -0.006679827347397804, -0.0045653823763132095, -0.10507210344076157, -0.2620336711406708, -0.1195240244269371, -0.02290480025112629, -0.045508917421102524, 0.09363618493080139, -0.17822681367397308, 0.06864599883556366, -0.07250341773033142, 0.0033863885328173637, 0.04755081236362457, -0.03266334533691406, -0.03866845369338989, 0.05982181429862976, 0.13527241349220276, 0.10890675336122513, 0.012377653270959854, 0.0587063692510128, 0.07345174998044968, 0.07136519998311996, -0.010186678729951382, 0.11139161884784698, -0.0975114032626152, 0.1646951287984848, -0.0808420330286026, 0.07974186539649963, 0.0731637254357338, -0.22592923045158386, 0.04766762629151344, 0.06771371513605118, -0.06358478963375092, -0.06846915930509567, 0.07486400753259659, -0.009669041261076927, -0.025415770709514618, -0.09120111167430878, -0.056568995118141174, -0.0683337152004242, 0.13941091299057007, 0.03873664513230324, 0.05015424266457558, 0.05993318930268288, 0.060308802872896194, 0.08415345102548599, 0.006817380432039499, -0.02015165239572525, 0.02466832660138607, -0.16767825186252594, -0.0476418174803257, 0.005538524128496647, 0.1194644570350647, -0.012650809250772, 0.1242874339222908, 0.1042163297533989, -0.0852203518152237, -0.020901229232549667, 0.19344568252563477, 0.05910066142678261, 0.03513564541935921, -0.012417426332831383, 0.15671978890895844, 0.024891819804906845, 0.02726163901388645, 0.002600121544674039, -0.05136644095182419, 0.060480181127786636, -0.07492482662200928, 0.10417075455188751, -0.024525515735149384, 0.006627666298300028, 0.11273688077926636, 0.045498836785554886], [0.018230976536870003, 0.016360459849238396, -0.01941921003162861, -0.07468613237142563, 0.04975730553269386, 0.030416781082749367, 0.042479682713747025, 0.053075481206178665, 0.04460638388991356, -0.025238750502467155, 0.055593110620975494, 0.02741081640124321, 0.04801826924085617, 0.027092358097434044, 0.05068584159016609, 0.057177864015102386, 0.029946278780698776, -0.023491187021136284, -0.06272871047258377, -0.047871507704257965, -0.037645697593688965, -0.04140060022473335, -0.049397725611925125, 0.02837997116148472, 0.023465033620595932, -0.07368725538253784, 0.05937289074063301, -0.0133995795622468, 0.05342894047498703, 0.007220955099910498, -0.07986578345298767, -0.027705105021595955, -0.023980358615517616, 0.0181891992688179, 0.05688219144940376, 0.05420013517141342, -0.07301487028598785, 0.05245824530720711, -0.054500285536050797, -0.077860526740551, -0.005843659862875938, 0.06103488802909851, 0.06325394660234451, -0.0353044755756855, 0.07556135207414627, 0.0730941966176033, -0.00394600722938776, 0.04716821387410164, 0.017323540523648262, 0.009113107807934284, -0.030964819714426994, -0.02376551181077957, -0.07002764940261841, 0.031119454652071, 0.05231908708810806, -0.004547424148768187, 0.048170305788517, 0.020057905465364456, -0.02681727334856987, 0.02988669089972973, 0.026265203952789307, 0.03475543484091759, 0.056107744574546814, -0.06391769647598267, -0.021288294345140457, -0.043344154953956604, -0.04257066175341606, -0.0676506981253624, -0.0718671977519989, -0.019984768703579903, -0.007540833204984665, -0.023133104667067528, -0.057045139372348785, 0.05353516712784767, 0.08059408515691757, -0.030905768275260925, 0.014872184954583645, -0.06002333387732506, -0.045837726444005966, -0.0664890930056572, 0.03911251202225685, -0.008835268206894398, -0.015151552855968475, 0.03168129548430443, -0.009736308827996254, -0.047415558248758316, -0.04701608791947365, 0.02187993936240673, 0.07402151077985764, -0.07820349931716919, -0.07577715069055557, 0.01878540962934494, -0.0394958034157753, 0.03077060915529728, 0.04132718965411186, -0.01738959178328514, 0.004077086690813303, 0.0004733546229545027, -0.05855664983391762, 0.05294308811426163, 0.057284414768218994, -0.06873898208141327, 0.00046109053073450923, -0.07538969069719315, -0.06675808131694794, -0.03541448339819908, 0.05529193952679634, 0.026501910760998726, 0.06317030638456345, -0.042449988424777985, -0.018478037789463997, 0.0060937595553696156, -0.02979837916791439, -0.024439804255962372, -0.08144698292016983, -0.075105682015419, 0.05069107934832573, 0.010096920654177666, -0.04838654026389122, 0.029978271573781967, 0.04962211847305298, 0.039456624537706375, -0.05867127701640129, 0.05675517022609711, -0.020347941666841507, 0.05635808780789375, 0.029401909559965134, 0.0781719759106636, -0.07841712981462479, 0.05240960046648979, -0.07874061912298203, -0.07606232166290283, -0.03887777030467987, -0.03057115338742733, -0.0733659639954567, 0.0010831812396645546, -0.011716285720467567, 0.019813597202301025, 0.06217171996831894, 0.02468159981071949, 0.04029940068721771, -0.01589219644665718, -0.014446270652115345, -0.06521912664175034, -0.019515249878168106, -0.07171867787837982, -0.07646050304174423, 0.0370141863822937, 0.0031981414649635553, -0.07558842748403549], [-0.031922224909067154, -0.025513162836432457, -0.010863085277378559, 0.0005867389845661819, 0.03470335155725479, 0.029972592368721962, 0.03801665082573891, -0.04836878925561905, 0.04465790092945099, -0.03500690311193466, -0.0767480805516243, 0.0390767939388752, 0.06977464258670807, 0.011305633932352066, 0.020659390836954117, -0.030987411737442017, -0.0733054131269455, -0.02334713377058506, 0.046225883066654205, 0.01199929416179657, 0.06769487261772156, 0.007642898242920637, -0.04935653880238533, -0.022825315594673157, 0.05278615653514862, -0.05080302059650421, -0.002264602342620492, -0.04829031601548195, 0.01233162172138691, -0.04908634349703789, 0.013291397131979465, -0.025102686136960983, -0.02737065963447094, -0.03159988671541214, -0.0545894019305706, -0.02980356104671955, -0.06354770064353943, 0.04082687571644783, 0.07549946010112762, -0.06299927085638046, 0.026518452912569046, -0.07203264534473419, -0.046250663697719574, -0.0029089446179568768, 0.04355010390281677, -0.036662545055150986, 0.0009176452876999974, 0.028274977579712868, -0.03748532012104988, -0.005232332739979029, 0.02363472990691662, 0.026005836203694344, -0.015318813733756542, -0.03284614905714989, -0.041993141174316406, 0.0044311294332146645, -0.02638452686369419, 0.07853343337774277, -0.025855738669633865, 0.05420224368572235, -0.04927155002951622, -0.0289032980799675, -0.04866517707705498, -0.01154848001897335, 0.006926434114575386, -0.06563478708267212, -0.08113876730203629, 0.04703379049897194, -0.04873558506369591, -0.059396058320999146, 0.05813298746943474, -0.05888962000608444, 0.06832941621541977, 0.03478682413697243, -0.015414726920425892, 0.07481032609939575, -0.016428789123892784, -0.05593821406364441, -0.04532962664961815, 0.030970212072134018, -0.0369572639465332, -0.0820176750421524, 0.04252837598323822, -0.033218346536159515, -0.08490295708179474, -0.054066188633441925, 0.0657312422990799, 0.0050636641681194305, -0.0370316281914711, -0.07141236960887909, 0.02068515494465828, -0.017224017530679703, -0.0849870964884758, 0.005400670226663351, 0.006604451220482588, -0.032583046704530716, -0.055969707667827606, -0.0838613361120224, -0.016155852004885674, 0.0004455000744201243, -0.08578592538833618, -0.05517498031258583, -0.040507685393095016, 0.05092184990644455, -0.009633713401854038, 0.06408265233039856, 0.05430522561073303, 0.0017105081351473927, 0.04633822664618492, -0.02036459557712078, -0.012366501614451408, -0.002596452133730054, -0.03523695468902588, 0.04528311640024185, 0.051799286156892776, -0.07303959876298904, 0.028494352474808693, -0.008233384229242802, 0.04147331416606903, -0.00027870049234479666, 0.014277511276304722, -0.0493575818836689, -0.0037940337788313627, 0.006100451108068228, 0.04583863914012909, 0.07126495242118835, -0.022563964128494263, -0.03807026892900467, 0.014467713423073292, -0.020355485379695892, 0.05472312122583389, -0.002428385429084301, 0.01747150532901287, -0.06850994378328323, -0.06696277111768723, 0.045949216932058334, 0.04388321563601494, -0.019538765773177147, -0.03266844153404236, 0.012837998569011688, 0.05407997593283653, -0.06796716153621674, 0.061620235443115234, -0.07412745803594589, -0.042470697313547134, 0.018652688711881638, -0.05175236985087395, -0.04310990869998932, 0.025283733382821083, 0.037621766328811646], [0.0653468519449234, -0.005016944836825132, 0.005814440082758665, 0.017442230135202408, -0.07953144609928131, 0.03754625469446182, 0.008007975295186043, -0.023974955081939697, -0.050970401614904404, -0.04330309480428696, -0.011750400997698307, 0.012970124371349812, -0.06998670101165771, 0.11502614617347717, 0.007795673329383135, -0.14088907837867737, -0.031109293922781944, 0.011834237724542618, -0.0964745506644249, 0.044290222227573395, 0.09739970415830612, -0.0458037406206131, -0.024666186422109604, -0.08792562782764435, 0.05352218449115753, 0.08495863527059555, -0.09741853177547455, -0.0005233648116700351, 0.22587478160858154, -0.0706716850399971, 0.018938329070806503, 0.08565471321344376, 0.03464983031153679, 0.040361661463975906, -0.07502273470163345, 0.015797527506947517, -0.034532610327005386, 0.07277482748031616, -0.03319626301527023, 0.05535268783569336, -0.03366657719016075, -0.034205809235572815, 0.005487845744937658, 0.05656964331865311, 0.016981713473796844, -0.04752372205257416, 0.0772024393081665, 0.04231777414679527, -0.036606211215257645, 0.07766042649745941, 0.07272709906101227, 0.005046200938522816, 0.06446517258882523, -0.008667994290590286, -0.07383909076452255, 0.0695173591375351, -0.0732405036687851, 0.09408363699913025, 0.0008688653470017016, 0.05620253458619118, 0.21796195209026337, 0.052502602338790894, 0.0412883423268795, 0.008805578574538231, 0.02551266923546791, 0.036537688225507736, 0.03460690379142761, 0.07094687968492508, 0.04388875141739845, 0.041252076625823975, -0.007440601009875536, 0.002956255106255412, -0.051126085221767426, 0.047329697757959366, -0.056367501616477966, -0.031176628544926643, -0.08204778283834457, 0.01244269497692585, -0.0006121661281213164, 0.2351851910352707, 0.010962960310280323, -0.06001818925142288, -0.011884487234055996, -0.06864751875400543, 0.02937149628996849, -0.03079482726752758, 0.04864765703678131, -0.03701389953494072, 0.023034149780869484, 0.029552118852734566, 0.06938523799180984, 0.07797498255968094, 0.029861802235245705, -0.13448013365268707, 0.12379589676856995, -0.05946004390716553, 0.071419358253479, 0.016360469162464142, 0.08771397918462753, 0.013479328714311123, -0.005587008316069841, -0.20146308839321136, 0.07027873396873474, 0.055325672030448914, -0.021624376997351646, 0.1353457123041153, -0.1050083115696907, 0.002063555410131812, -0.06389069557189941, -0.0727507546544075, 0.047972239553928375, 0.06736516207456589, 0.023512447252869606, 0.18484601378440857, -0.023335790261626244, -0.012749426998198032, -0.09785936027765274, -0.09201530367136002, 0.047787073999643326, 0.09271907806396484, -0.04759090393781662, 0.01200782135128975, -0.006563777104020119, -0.03307469189167023, 0.03438754379749298, 0.10653150826692581, 0.08116034418344498, 0.08020976930856705, -0.051886748522520065, -0.034777674823999405, 0.012769097462296486, -0.1620694100856781, 0.05718028545379639, 0.029388703405857086, -0.15851737558841705, -0.022485215216875076, -0.09225292503833771, 0.07698280364274979, -0.03165559470653534, -0.024735700339078903, -0.023094231262803078, -0.0682249367237091, -0.07864046096801758, 0.01803223043680191, 0.08090423792600632, -0.0378534309566021, -0.048441652208566666, -0.03522815182805061, -0.039741192013025284, -0.025783227756619453], [0.07780154049396515, -0.0004255063831806183, -0.00398689741268754, 0.026441583409905434, -0.05656881630420685, -0.054018352180719376, 0.03735041618347168, 0.032552290707826614, -0.0033634924329817295, -0.06457549333572388, -0.09916352480649948, -0.0011815957259386778, -0.0029745681677013636, 0.04515634849667549, 0.0025216315407305956, -0.01590871252119541, 0.06606866419315338, -0.05832727253437042, 0.04833057522773743, 0.048416219651699066, 0.006518766283988953, -0.001954135950654745, 0.056331995874643326, 0.020665239542722702, -0.017069077119231224, 0.040985070168972015, 0.04918717220425606, -0.009136604145169258, -0.016298186033964157, 0.06476002186536789, -0.08120062202215195, -0.07186676561832428, -0.04714380204677582, -0.05048665776848793, -0.07622319459915161, -0.025671543553471565, -0.0700707659125328, 0.016520526260137558, -0.010128593072295189, 0.010418318212032318, -0.054490383714437485, -0.06474151462316513, -0.07557395100593567, -0.039162494242191315, -0.10149912536144257, 0.0069079212844371796, 0.0395202711224556, 0.053890276700258255, -0.060685303062200546, -0.051353082060813904, 0.04852452874183655, -0.02456454001367092, -0.026765087619423866, 0.04950394481420517, -0.015431183390319347, 0.06030065938830376, 0.07868823409080505, 0.01524929516017437, -0.031368426978588104, 0.0021287384442985058, -0.06947796791791916, 0.02081277407705784, -0.010469851084053516, -0.01787750795483589, -0.049885477870702744, -0.08058729767799377, -0.07405214011669159, 0.029581842944025993, -0.06373454630374908, 0.05506386607885361, 0.038458529859781265, -0.08076553791761398, 0.019955510273575783, -0.07008618861436844, -0.09644561260938644, 0.02953161671757698, -0.015604618936777115, -0.07324033975601196, -0.050535380840301514, -0.05261041596531868, 0.02322370372712612, -0.09649953246116638, -0.016957998275756836, -0.02461562678217888, -0.06382696330547333, -0.09922568500041962, -0.04505087807774544, -0.054567474871873856, -0.0817900225520134, 0.016275648027658463, -0.05884801596403122, -0.04670900106430054, 0.055713310837745667, -0.0029729485977441072, 0.057550098747015, 0.061833884567022324, -0.02857554517686367, -0.037682026624679565, 0.01789967715740204, -0.0035208603367209435, -0.03459930419921875, -0.05823894962668419, -0.0751495510339737, -0.0878482460975647, 0.03651579096913338, -0.08829090744256973, -0.048307064920663834, 0.043841853737831116, -0.01622536964714527, 0.06454862654209137, 0.053991805762052536, 0.029938550665974617, -0.009206139482557774, 0.007026782259345055, 0.027734098955988884, 0.050884541124105453, -0.09068863838911057, 0.05614359304308891, 0.048253171145915985, 0.027813266962766647, -0.03789619356393814, 0.0006481368909589946, -0.05229467526078224, -0.03439647704362869, 0.007684142794460058, -0.054631900042295456, 0.04556247591972351, -0.05088203400373459, 0.07629362493753433, -0.0807340145111084, -0.0744374692440033, -0.07344777137041092, -0.04912375658750534, 0.008671661838889122, 0.05344171077013016, -0.0023870053701102734, -0.00727158272638917, -0.09223498404026031, 0.04698542132973671, -0.07708161324262619, 0.004398423712700605, -0.0025074791628867388, -0.05844731256365776, 0.08150839060544968, 0.05440162494778633, -0.003210402326658368, 0.016133224591612816, -0.009022471494972706, -0.0001874686568044126, 0.01746351830661297], [0.0241566002368927, 0.04744464159011841, 0.019341275095939636, 0.04235538840293884, -0.03927678242325783, 0.030524324625730515, 0.026699382811784744, 0.03525490686297417, -0.02730741910636425, -0.19876499474048615, 0.09987582266330719, -0.10005209594964981, -0.045475587248802185, 0.11140868812799454, 0.0695682093501091, -0.06820714473724365, -0.05291450768709183, -0.017250172793865204, -0.07585180550813675, -0.03559935837984085, -0.027621664106845856, -0.011348399333655834, -0.023429984226822853, -0.02701893262565136, -0.07312261313199997, 0.028749311342835426, -0.062074240297079086, -0.05554112419486046, 0.13651609420776367, -0.03682749718427658, -0.03056860715150833, 0.11057008057832718, -0.05883323773741722, -0.09226307272911072, 0.033335693180561066, -0.07872971147298813, -0.058065272867679596, 0.011265240609645844, 0.03648887574672699, 0.00906709861010313, -0.06934694200754166, -0.016492940485477448, 0.035654760897159576, 0.02691299468278885, -0.08673868328332901, 0.005742688197642565, 0.030945859849452972, 0.020276371389627457, -0.0804826095700264, -0.002017138758674264, 0.10649538040161133, -0.076817087829113, 0.07032474130392075, 0.08475687354803085, 0.049498848617076874, 0.06345636397600174, -0.016344184055924416, 0.08638842403888702, 0.05332360416650772, -0.0008207359933294356, 0.20078539848327637, 0.026235805824398994, -0.03379068151116371, -0.006789142265915871, 0.08882542699575424, -0.001043858239427209, 0.04699878394603729, 0.0955013632774353, 0.10122963041067123, -0.003040352137759328, -0.02212454378604889, -0.04165998473763466, -0.03314293175935745, -0.00232490967027843, -0.02799779176712036, -0.015090319328010082, 0.06960781663656235, -0.10367043316364288, 0.022057777270674706, 0.213800311088562, 0.12380713224411011, 0.04236332327127457, 0.10581254959106445, -0.006401142105460167, 0.10579625517129898, -0.03920504078269005, 0.10160420835018158, 0.07261300086975098, 0.06911129504442215, 0.06237581744790077, -0.003293665125966072, -0.018842000514268875, 0.042048122733831406, -0.17133183777332306, 0.011666878126561642, 0.07763832062482834, -0.0670030415058136, -0.010040881112217903, -0.03928500413894653, 0.0029325480572879314, -0.007079404778778553, -0.06889587640762329, 0.04019707441329956, 0.03149547427892685, 0.09155303984880447, 0.1274910569190979, -0.05256707966327667, -0.02771993726491928, -0.057817909866571426, -0.016453053802251816, -0.05519567430019379, -0.04473565146327019, -0.046111490577459335, 0.13737301528453827, 0.0074491421692073345, -0.04521189257502556, -0.12357237935066223, -0.019802914932370186, -0.03216922655701637, 0.09374157339334488, -0.01637621596455574, -0.036158476024866104, 0.03957498073577881, 0.062405962496995926, -0.044833023101091385, 0.1777477264404297, 0.008961553685367107, 0.0354253314435482, 0.01571662537753582, 0.033182818442583084, 0.03994247317314148, -0.13317105174064636, 0.0663517639040947, 0.07068157941102982, -0.06208968907594681, -0.061976294964551926, -0.09996166080236435, 0.09421934932470322, -0.02118566446006298, 0.08901245892047882, 0.09649410098791122, 0.07119905948638916, -0.016043219715356827, 0.0014263419434428215, 0.09837498515844345, -0.032772503793239594, -0.021855536848306656, -0.042942389845848083, -0.1300562471151352, -0.08879818767309189], [0.04364228993654251, 0.04114626720547676, -0.035564735531806946, -0.01500420831143856, -0.04769856482744217, -0.05669725686311722, -0.03616069257259369, -0.049926795065402985, -0.01444294210523367, -0.01409260742366314, -0.059203460812568665, 0.005710779223591089, 0.0683354064822197, 0.020200880244374275, -0.03698775917291641, 0.0534951351583004, 0.07155507802963257, -0.029444647952914238, 0.06113225966691971, 0.023144882172346115, -0.004270479548722506, 0.070528045296669, -0.08002379536628723, -0.06515534967184067, 0.059610288590192795, -0.013941039331257343, 0.05878593027591705, -0.0631481483578682, -0.037938497960567474, 0.0200886819511652, 0.005288729444146156, 0.07650167495012283, 0.03176391124725342, 0.08034175634384155, 0.07646838575601578, 0.0509495809674263, -0.010612791404128075, -0.008663862943649292, 0.039386868476867676, -0.05784241110086441, -0.022289831191301346, 0.04025012254714966, -0.06469254195690155, -0.021150751039385796, 0.0019757142290472984, -0.006961228791624308, 0.032918449491262436, 0.05564519390463829, -0.036104705184698105, -0.044796787202358246, -0.051047731190919876, 0.03420913591980934, -0.019169926643371582, -0.026884112507104874, -0.02489401213824749, 0.021043071523308754, 0.0009621269418857992, -0.07235587388277054, -0.05451563373208046, 0.009307211264967918, 0.016647838056087494, 0.06939428299665451, 0.025080718100070953, -0.04613514989614487, -0.04447702690958977, -0.07818705588579178, 0.07094161957502365, -0.026148540899157524, -0.015547536313533783, -0.0561261810362339, 0.028531353920698166, -0.05288553237915039, 0.013688447885215282, -0.01385579351335764, -0.022389588877558708, 0.02684217132627964, -0.06228484958410263, 0.06961711496114731, -0.05268244445323944, -0.033829465508461, 0.006713046692311764, 0.06361886113882065, 0.007311670109629631, -0.06458234041929245, 0.02582761086523533, 0.036956798285245895, 0.041408929973840714, -0.068585105240345, -0.05466989800333977, 0.02720593847334385, 0.027535023167729378, 0.02808230370283127, -0.06808172911405563, -0.05069422349333763, -0.06135919690132141, 0.01249405276030302, 0.013302071020007133, -0.07952085882425308, -0.04642383009195328, -0.018744373694062233, -0.05111854150891304, 0.04940025508403778, -0.006338953506201506, -0.07125409692525864, -0.04937179386615753, 0.0038892419543117285, 0.07340338081121445, -0.07813487946987152, -0.0038325448986142874, 0.01959502324461937, 0.07590243220329285, -0.023457946255803108, -0.07366140931844711, -0.07548092305660248, 0.0351458415389061, -0.03153083845973015, -0.04485476762056351, -0.05099239572882652, 0.0395670011639595, -0.0382096990942955, 0.038104549050331116, -0.0677877813577652, -0.02535919100046158, -0.02944045327603817, 0.0578601248562336, -0.009378946386277676, -0.023023506626486778, 0.039190661162137985, 0.0024743368849158287, -0.009335671551525593, 0.04384327307343483, -0.01474492996931076, -0.033712051808834076, -0.06644758582115173, -0.003941549453884363, 0.07006626576185226, 0.04931230470538139, 0.014409011229872704, -0.05998770147562027, 0.04886004328727722, -0.03703200817108154, -0.007222113199532032, -0.06065536290407181, -0.06126875430345535, 0.07528863847255707, -0.01363341510295868, 0.06596334278583527, -0.06412500143051147, -0.013505518436431885, 0.006966543383896351], [-0.03308408334851265, -0.039381254464387894, -0.040776778012514114, 0.05220654234290123, 0.024817313998937607, -0.017140056937932968, -0.002761968644335866, -0.07184058427810669, -0.021158909425139427, 0.06030263379216194, 0.0022911683190613985, -0.0296975988894701, -0.025672195479273796, 0.02307104505598545, -0.06827378273010254, 0.05454464629292488, 0.07292124629020691, -0.0205104760825634, -0.07331532984972, -0.03696988895535469, -0.07699744403362274, 0.013657571747899055, -0.02891976200044155, 0.044771771878004074, -0.0861867144703865, 0.0325576551258564, -0.004271127749234438, -0.01990107074379921, -0.013384324498474598, 0.04725659266114235, -0.0013871267437934875, -0.023852674290537834, 0.016423987224698067, -0.07064513117074966, -0.09509071707725525, 0.035026613622903824, 0.0030643108766525984, 0.055400196462869644, -0.043143268674612045, 0.08130218088626862, -0.06594893336296082, 0.073146753013134, 0.007420353591442108, -0.0802004337310791, -0.0063380650244653225, -0.017705827951431274, -0.06896530091762543, -0.07791696488857269, 0.058419980108737946, -0.024059105664491653, -0.039337921887636185, -0.06551612168550491, -0.09977243095636368, -0.08463235944509506, 0.022277217358350754, -0.04828128591179848, 0.04336478188633919, -0.0752306804060936, 0.05582913011312485, -0.047753866761922836, -0.003729521296918392, -0.06556098163127899, -0.09257394820451736, -0.09145616739988327, -0.01575428433716297, 0.07870741188526154, -0.04832009598612785, -0.08870527893304825, -0.004973187111318111, 0.07722792774438858, -0.05822025611996651, -0.0303738284856081, -0.012496612034738064, -0.036377642303705215, 0.00027016070089302957, 0.06090612709522247, 0.0072960578836500645, -0.0598970465362072, -0.07226510345935822, 0.04428844153881073, -0.051623567938804626, 0.008550525642931461, -0.047592949122190475, -0.067494235932827, -0.04523930698633194, 0.017542218789458275, -0.10237115621566772, -0.07091313600540161, 0.02936471812427044, 0.04082757979631424, -0.03606237471103668, -0.05462028831243515, 0.04447781294584274, -0.055939722806215286, -0.08306688815355301, -0.019169187173247337, -0.07334680110216141, 0.02998364344239235, 0.03561651334166527, 0.032626211643218994, -0.0015125933568924665, 0.030788348987698555, -0.07662343233823776, -0.04079510644078255, 0.018719635903835297, -0.0934402346611023, 0.03606647253036499, -0.022230179980397224, 0.06136525049805641, -0.08160051703453064, 0.001249637920409441, -0.0029626127798110247, -0.04863307997584343, -0.03732847794890404, -0.06522391736507416, 0.039700694382190704, 0.045085418969392776, -0.018688319250941277, -0.09496112912893295, -0.0008761834469623864, 0.049016837030649185, 0.05084199830889702, -0.02193167805671692, -0.09469205886125565, -0.017696049064397812, -0.03770577162504196, 0.0038775326684117317, -0.10310682654380798, -0.017214292660355568, -0.020347464829683304, 0.04219725355505943, 0.07307770848274231, -0.05202774330973625, -0.08282609283924103, -0.06574009358882904, -0.035054612904787064, 0.03715839982032776, 0.010522349737584591, 0.04429993778467178, -0.04381265863776207, -0.004043645225465298, 0.02218756265938282, 0.06472393125295639, -0.05624699965119362, -0.052288759499788284, -0.06288623064756393, 0.06758586317300797, 0.026870300993323326, -0.06030116602778435, 0.058229029178619385], [-0.036816686391830444, -0.0778191015124321, 0.03428470715880394, 0.048614196479320526, -0.010611379519104958, -0.004854970145970583, -0.03936806321144104, 0.07951217144727707, 0.05762305110692978, -0.019808536395430565, -0.060148146003484726, 0.058840904384851456, 0.0036910991184413433, -0.044932831078767776, 0.047494709491729736, -0.0012993502896279097, -0.022475535050034523, -0.030780741944909096, 5.933479405939579e-05, -0.03617428243160248, -0.04583423212170601, -0.06617754697799683, 0.033112019300460815, -0.05058477073907852, -0.005811218172311783, -0.07248018682003021, 0.033850401639938354, -0.02501789852976799, 0.017307383939623833, -0.0354142002761364, -0.07242858409881592, -0.06912471354007721, 0.003618663176894188, 0.06906251609325409, 0.05189402028918266, -0.08123744279146194, 0.07809971272945404, -0.004839727655053139, 0.06411721557378769, -0.04874734953045845, -0.05406062677502632, -0.04350901022553444, -0.03194495290517807, -0.03514949977397919, -0.04696182534098625, -0.04609913378953934, -0.036570772528648376, 0.07790293544530869, 0.026766952127218246, -0.01659296080470085, -0.054894380271434784, 0.025039536878466606, -0.009437289088964462, -0.05781378597021103, 0.05984151363372803, 0.0019455505535006523, 0.04481638967990875, 0.011297506280243397, -0.05869212746620178, 0.06029133498668671, 0.04545258358120918, -0.047322310507297516, 0.021230848506093025, -0.0047385296784341335, -0.07777828723192215, 0.061546243727207184, -0.06520233303308487, -0.01933877356350422, -0.027718955650925636, -0.017526190727949142, 0.010964040644466877, -0.06238045170903206, -0.06989844143390656, -0.0641881600022316, -0.03471466153860092, -0.0037405157927423716, 0.024891257286071777, 0.027630235999822617, 0.04994657263159752, 0.010842567309737206, -0.03357069566845894, 0.0014870880404487252, -0.04813006520271301, 0.043954167515039444, -0.04118235781788826, -0.06804880499839783, 0.07352255284786224, -0.05198865756392479, 0.008662802167236805, 0.07605000585317612, -0.015634581446647644, -0.05812999606132507, -0.04130369424819946, -0.08052490651607513, -0.033996228128671646, -0.03986562415957451, -0.02131752483546734, 0.007264424115419388, -0.026299845427274704, -0.039824120700359344, 0.08163975179195404, 0.02840389497578144, 0.06477431207895279, -0.028559941798448563, 0.025049280375242233, -0.004271628335118294, -0.020901918411254883, 0.025556787848472595, -0.04099785163998604, 0.044956620782613754, 0.022539950907230377, -0.06734132021665573, -0.0356592983007431, 0.08154730498790741, 0.02995782159268856, 0.012930303812026978, -0.0360267236828804, 0.05746099725365639, -0.016984760761260986, -0.016797276213765144, 0.02542753890156746, 0.04942147433757782, 0.0632212832570076, -0.024106541648507118, -0.0010711507638916373, -0.019861213862895966, 0.06201782450079918, 0.052759505808353424, -0.03204147145152092, -0.05994571000337601, -0.0662522166967392, -0.01204958651214838, -0.004253835417330265, 0.013443020172417164, -0.016032950952649117, 0.039303120225667953, -0.05038783699274063, -0.012300338596105576, 0.07285797595977783, 0.00038804137147963047, 0.05132145434617996, 0.0015938050346449018, 0.06472445279359818, 0.0786057710647583, -0.061359379440546036, -0.0668744146823883, 0.08146435022354126, 0.014844289049506187, 0.07726047933101654, -0.06832189112901688], [0.017357617616653442, -0.03133080527186394, -0.006311582867056131, -0.0771796852350235, 0.0348418653011322, 0.04167945310473442, -0.08063589036464691, -0.018488015979528427, -0.052732884883880615, 0.05331513658165932, -0.011930031701922417, 0.06708158552646637, -0.052089106291532516, -0.007698689587414265, -0.01893116720020771, 0.010405810549855232, 0.010404028929769993, -0.058064792305231094, 0.036862704902887344, 0.06777029484510422, 0.05291365087032318, -0.07285349071025848, 0.008318736217916012, 0.024293996393680573, -0.00963047705590725, -0.02557647041976452, 0.016781944781541824, -0.07050561159849167, -0.05640392377972603, 0.049303777515888214, -0.01888653077185154, 0.001106852781958878, 0.03419826552271843, 0.07132454961538315, -0.0043981135822832584, 0.039666544646024704, 0.0030825866851955652, -0.02640882134437561, 0.081382155418396, -0.06775949895381927, 0.07685473561286926, -0.03728849068284035, 0.022325513884425163, 0.027122659608721733, 0.07405436784029007, -0.048550188541412354, -0.002389938570559025, 0.06070465222001076, -0.036728132516145706, 0.006559307686984539, -0.043721362948417664, -0.0684661790728569, 0.05410679057240486, -0.008597198873758316, 0.059422124177217484, 0.041576191782951355, 0.06213347613811493, 0.08002384006977081, 0.004457107745110989, 0.02826754003763199, -0.026093916967511177, -0.07908192276954651, 0.05991692841053009, 0.030038435012102127, 0.04920726269483566, -0.052599262446165085, -0.05911511182785034, 0.006536297965794802, -0.042234186083078384, 0.04008299112319946, 0.04573313146829605, 0.02818487398326397, -0.05227390676736832, -0.06529371440410614, 0.05842086672782898, 0.036023326218128204, -0.07437213510274887, -0.020484628155827522, 0.019681056961417198, 0.0024009274784475565, 0.0032128875609487295, -0.07700470089912415, -0.04906924441456795, 0.07072605937719345, 0.07762986421585083, 0.009274487383663654, 0.02501962147653103, 0.06945385783910751, -0.03420696780085564, -0.07594110816717148, -0.04931368678808212, 0.08079041540622711, -0.030257435515522957, -0.05494050681591034, 0.07392914593219757, 0.01747876964509487, 0.008195823058485985, 0.06702230125665665, 0.020564762875437737, 0.018270766362547874, 0.07804878801107407, 2.2308948246063665e-05, -0.021966829895973206, -0.05246931314468384, 0.018894841894507408, 0.03180471435189247, -0.06614112854003906, 0.05595264211297035, -0.03927019238471985, 0.057983048260211945, -0.06413603574037552, 0.0014969285111874342, 0.014097337611019611, -0.06718418747186661, 0.005186227150261402, 0.021123148500919342, -0.013594014570116997, -0.06468170136213303, -0.008209459483623505, -0.03339685499668121, 0.048221901059150696, 0.046331364661455154, -0.02138683572411537, -0.012524177320301533, 0.013148507103323936, 0.05051000043749809, 0.05637121945619583, -0.03383387625217438, 0.008250534534454346, -0.02734784036874771, -0.08011141419410706, -0.01704898104071617, 0.013373085297644138, 0.033535487949848175, -0.050108399242162704, -0.06020385026931763, -0.0329718180000782, -0.07973755151033401, 0.03698012977838516, -0.06521430611610413, -0.026098724454641342, -0.07072541117668152, 0.03897763416171074, -0.05929816886782646, 0.07305692881345749, -0.07270313054323196, 0.04781088978052139, -0.02734575793147087, -0.012573973275721073, -0.06953930109739304], [0.0279445368796587, -0.12380051612854004, 0.06468161195516586, -0.03040139377117157, -0.05397658795118332, -0.02462199330329895, 0.012092195451259613, -0.009616736322641373, 0.03170650824904442, -0.11409715563058853, 0.03209593519568443, 0.02822924591600895, 0.0037500690668821335, 0.06610267609357834, 0.06773789972066879, -0.03436943143606186, -0.04533796384930611, 0.09257622808218002, 0.05974180996417999, -0.07534429430961609, 0.026330118998885155, 0.06373606622219086, 0.07637792080640793, 0.03795062005519867, 0.0653887465596199, -0.03105234168469906, -0.016391878947615623, 0.00679444707930088, 0.12271895259618759, 0.04700335115194321, 0.0007414757274091244, 0.06606429815292358, -0.016831958666443825, 0.004354735836386681, 0.020890455693006516, -0.01600322127342224, 0.0436224602162838, -0.07258652150630951, 0.08148758113384247, 0.022660022601485252, 0.011811306700110435, -0.02359555847942829, -0.06990566104650497, -0.013545753434300423, 0.07792197167873383, -0.014404037967324257, 0.06534818559885025, -0.054358091205358505, 0.04515426605939865, 0.051104310899972916, -0.02831118367612362, -0.04087009280920029, 0.09109514951705933, -0.08495251834392548, 0.04525960236787796, -0.009158787317574024, 0.030402854084968567, 0.010711138136684895, -0.05303092300891876, 0.027798328548669815, -0.010717426426708698, 0.08068285137414932, 0.004780304618179798, 0.03889631852507591, 0.013710306026041508, 0.05581490695476532, 0.066928431391716, 0.026617497205734253, 0.03267502039670944, 0.01084014493972063, 0.09627174586057663, -0.09753109514713287, -0.0049632154405117035, -0.04151727259159088, -0.011014578863978386, 0.051863837987184525, -0.03412339463829994, -0.0206614900380373, -0.03382701799273491, 0.014531142078340054, -0.06508080661296844, 0.07549671828746796, 0.050291333347558975, -0.07116658985614777, 0.0689370408654213, 0.0072735389694571495, -0.052692756056785583, 0.023618390783667564, 0.10938696563243866, 0.09343770891427994, -0.04076121374964714, 0.08083905279636383, -0.020193014293909073, -0.04207818955183029, -0.01751839555799961, -0.06639619916677475, 0.04122181609272957, -0.014240244403481483, 0.008348820731043816, 0.036005038768053055, 0.025440029799938202, -0.0320667140185833, -0.016896111890673637, -0.03171954303979874, -0.0013794596306979656, 0.06373317539691925, 0.00798108335584402, 0.08637593686580658, -0.03949354961514473, 0.027941733598709106, -0.008842977695167065, -0.007887780666351318, 0.04474319517612457, -0.10707388073205948, 0.08485829830169678, 0.09026498347520828, -0.0417591817677021, 0.010651788674294949, 0.012948098592460155, -0.038115404546260834, -0.057024769484996796, 0.009867354296147823, -0.04140904173254967, -0.015944143757224083, -0.0401180200278759, -0.009600037708878517, -0.01980532519519329, 0.03888406977057457, 0.03528484329581261, -0.07757999002933502, 0.06079687178134918, -0.0993344709277153, 0.04164525121450424, 0.07665400952100754, -0.04290590435266495, 0.08140208572149277, 0.05986807495355606, -0.013496081344783306, -0.0048258258029818535, 0.04292583093047142, -0.010994909331202507, 0.05199051648378372, -0.05572758615016937, -0.059772562235593796, 0.05778031423687935, 0.07033967971801758, 0.0193487498909235, 0.029388943687081337, -0.02391098067164421, -0.051460929214954376], [-0.017684971913695335, 0.042151208966970444, 0.07473895698785782, -0.0033863368444144726, 9.708091238280758e-05, 0.07992420345544815, -0.01430973969399929, -0.027730314061045647, 0.026358917355537415, -0.001590300933457911, 0.009603233076632023, 0.07480786740779877, -0.01852543093264103, 0.041447125375270844, 0.009342445991933346, 0.03990001976490021, -0.07651614397764206, 0.01730332523584366, -0.07701319456100464, 0.0428670234978199, -0.07848824560642242, 0.019785672426223755, 0.00876684207469225, 0.07662898302078247, -0.07154592871665955, 0.024426089599728584, -0.06191108003258705, 0.06847382336854935, 0.06378351897001266, 0.026228995993733406, 0.008321033790707588, -0.06133652478456497, -0.021608475595712662, -0.02519312873482704, 0.030210452154278755, -0.07752570509910583, -0.07349854707717896, -0.04476228356361389, 0.025433368980884552, -0.08044303208589554, -0.06520204991102219, 0.08026831597089767, -0.0489121749997139, -0.03052171692252159, 0.01549592986702919, 0.002404538681730628, -0.0519326813519001, -0.05406332388520241, -0.01743282750248909, -0.0480194091796875, -0.06979423761367798, -0.06407321989536285, -0.021817324683070183, 0.023138554766774178, 0.07012824714183807, -0.025117091834545135, 0.028415370732545853, 0.02158822864294052, -0.011132866144180298, 0.00872603990137577, -0.07946693897247314, -0.045300208032131195, -0.042168691754341125, -0.029934540390968323, 0.0068313367664813995, -0.04618364945054054, 0.0457690954208374, -0.05066686123609543, 0.0016743293963372707, 0.0472591333091259, 0.005015367176383734, 0.06586838513612747, -0.0002909993927460164, -0.048470161855220795, 0.026606447994709015, -0.007479756139218807, -0.012867094948887825, 0.07743300497531891, 0.062185950577259064, -0.04657626524567604, 0.010932114906609058, -0.03642550855875015, -0.06818635016679764, -0.040723398327827454, -0.027965717017650604, -0.008285594172775745, 0.03789808601140976, -0.012158980593085289, 0.00995374284684658, 0.07824306190013885, 0.03568467125296593, 0.016145488247275352, -0.06104318052530289, 0.059559013694524765, -0.07177825272083282, -0.0038250600919127464, -0.0767989456653595, -0.07206516712903976, -0.011566187255084515, -0.04994834214448929, 0.003902430646121502, 0.06458554416894913, 0.02746373601257801, -0.0810592919588089, 0.020284537225961685, 0.010543226264417171, -0.057844046503305435, 0.05790650472044945, 0.03886466845870018, -0.05138074979186058, -0.011682345531880856, 0.016488872468471527, 0.03556734696030617, 0.042917296290397644, -0.020435813814401627, -0.05416656658053398, 0.013105952180922031, -0.07665300369262695, -0.006222980096936226, 0.05671600624918938, -0.040074385702610016, -0.06736546009778976, 0.08104956150054932, -0.036230579018592834, -0.050914499908685684, 0.05146726965904236, 0.060560327023267746, 0.06238133832812309, -0.0646849200129509, 0.04324426129460335, 0.011413168162107468, 0.005210950039327145, -0.01022302731871605, -0.009563521482050419, 0.0027779603842645884, -0.0779673233628273, 0.021595237776637077, 0.06641741842031479, -0.07129137963056564, 0.02548813819885254, 0.07128991931676865, -0.02574494481086731, 0.04497592896223068, 0.030704345554113388, -0.02165745384991169, -0.011602327227592468, -0.008635100908577442, -0.013925251550972462, -0.05528632551431656, -0.0015101658646017313], [0.0430382639169693, 0.0037228495348244905, -0.026325756683945656, -0.024036869406700134, -0.01538076438009739, 0.004259909503161907, 0.03880610316991806, 0.03459549322724342, -0.055353641510009766, -0.03919976204633713, 0.030972547829151154, -0.048016343265771866, 0.0273361224681139, 0.05935267359018326, -0.008716258220374584, 0.0695723220705986, -0.010543206706643105, -0.049141619354486465, 0.0015705130062997341, -0.010957080870866776, 0.020500853657722473, 0.034416742622852325, -0.034071583300828934, -0.05160747841000557, 0.06223653629422188, -0.006004241295158863, -0.07585266977548599, 0.0697467252612114, -0.018992954865098, 0.07382345199584961, 0.024027487263083458, 0.08022218942642212, 0.012637863866984844, -0.07449056953191757, -0.049284107983112335, 0.02953454665839672, -0.03642401099205017, 0.052522048354148865, 0.05238766968250275, -0.007157979998737574, 0.031019892543554306, -0.04860527068376541, -0.017090892419219017, -0.05689007788896561, -0.020706024020910263, 0.02182474173605442, 0.03400127962231636, -0.009237403981387615, -0.040640510618686676, -0.04897204414010048, 0.0036280560307204723, 0.021766098216176033, 0.029806867241859436, 0.005203776527196169, 0.0058084833435714245, -0.005886077880859375, 0.00864395871758461, -0.010870862752199173, 0.06106282398104668, 0.07763158529996872, 0.04643837362527847, 0.05144590511918068, -0.0052417367696762085, -0.05845065042376518, 0.04605972394347191, -0.03749202564358711, 0.02723623812198639, -0.05231887474656105, -0.06544206291437149, 0.05119509622454643, -0.07254846394062042, 0.07543638348579407, -0.05108964443206787, -0.007952497340738773, 0.01620914414525032, 0.06929608434438705, 0.05760052800178528, 0.08129844814538956, -0.07478789985179901, -0.07637087255716324, 0.06359566003084183, 0.04716560244560242, 0.03250168636441231, 0.0677083432674408, 0.007767456118017435, -0.005886729806661606, -0.07335443049669266, -0.06594827771186829, 0.07437823712825775, 0.05468074232339859, -0.013072644360363483, -0.05519372224807739, -0.07212258875370026, -0.043194931000471115, -0.020456040278077126, 0.039714910089969635, 0.04988858103752136, -0.027876997366547585, 0.013990767300128937, -0.010272550396621227, 0.06018036603927612, 0.05643881857395172, 0.015714960172772408, -0.0544123537838459, -0.008057949133217335, -0.07581263780593872, 0.06687863916158676, -0.03247946500778198, 0.05978640541434288, -0.07027200609445572, 0.06437715142965317, -0.05764992535114288, -0.037908926606178284, -0.006169660482555628, -0.044219762086868286, 0.018642105162143707, 0.02016475796699524, -0.005080191418528557, -0.038233742117881775, -0.048131342977285385, -0.006044537760317326, -0.026802118867635727, 0.005305597558617592, -0.006837867666035891, -0.06887977570295334, 0.07173950225114822, 0.04872438684105873, -0.06547921895980835, -0.03976845368742943, -0.04837208613753319, -0.06381019204854965, -0.05424732342362404, -0.08063910156488419, 0.05985715612769127, -0.04347759112715721, -0.018898755311965942, -0.049915142357349396, -0.02509046159684658, 0.005976500920951366, -0.06911636143922806, -0.015958208590745926, 0.06987587362527847, 0.025837402790784836, 0.02052255906164646, -0.02692636474967003, 0.02017567865550518, 0.015647118911147118, -0.06595493853092194, -0.062204375863075256, -0.08136040717363358], [0.06698139756917953, -0.06567420810461044, -0.06845945864915848, 0.06011244282126427, 0.011003927327692509, -0.0803292766213417, -0.08147981762886047, -0.006133768241852522, -0.01161315105855465, 0.07286781072616577, 0.05910607427358627, -0.038167428225278854, -0.029043767601251602, 0.06961922347545624, -0.01508498564362526, 0.006846192292869091, 0.030522525310516357, -0.03372529521584511, -0.011201296001672745, -0.045418888330459595, -0.0009618282783776522, -0.08163426071405411, -0.04967087507247925, 0.009632117114961147, -0.05847722664475441, -0.07235068827867508, 0.0034254419151693583, -0.040214117616415024, 0.05204426124691963, -0.036287836730480194, 0.07254330813884735, 0.007182926405221224, -0.04941302910447121, -0.05189827084541321, -0.0680997222661972, -0.07324812561273575, -0.06710146367549896, 0.034190136939287186, 0.03156890347599983, 0.0598541796207428, 0.01361219771206379, 0.012125896289944649, 0.06696274131536484, -0.06440048664808273, 0.01888902671635151, -0.0743417739868164, -0.013480065390467644, -0.0737750232219696, -0.01858367584645748, 0.07311806082725525, 0.05472774803638458, -0.0174154844135046, 0.029426177963614464, 0.06128300726413727, -0.057756468653678894, 0.055687066167593, -0.0027972368989139795, -0.06267982721328735, -0.009933152236044407, 0.040782976895570755, -0.058569442480802536, -0.0910121351480484, 0.05148978531360626, -0.01901533454656601, 0.034655001014471054, 0.029080521315336227, -0.00323167210444808, -0.02532886527478695, -0.037384189665317535, 0.01750938966870308, -0.01078342366963625, -0.002219407120719552, 0.051350586116313934, -0.045883432030677795, 6.0703874623868614e-05, 0.05361300706863403, 0.041547991335392, -0.025470882654190063, 0.002230654936283827, -0.017683247104287148, -0.03578285872936249, -0.018222594633698463, 0.017783818766474724, -0.006546583492308855, -0.02558845281600952, 0.0335787869989872, -0.03801688551902771, -0.05601105839014053, 0.005179476458579302, 0.07632070034742355, -0.02627331204712391, -0.05532870441675186, 0.08251862972974777, 0.08218216896057129, 0.06066526472568512, 0.049528006464242935, -0.021013692021369934, 0.008128862828016281, 0.03672051057219505, -0.03149789571762085, 0.06410062313079834, 0.07247337698936462, -0.06741544604301453, 0.06405960768461227, -0.07725707441568375, 0.07178045064210892, -0.029301607981324196, -0.016618691384792328, -0.0325489342212677, 0.05575283616781235, 0.08217478543519974, 0.0793863832950592, -0.06097475066781044, -0.047637663781642914, -0.07161151617765427, -0.010199477896094322, -0.0833539366722107, -0.0247458778321743, 0.006707068998366594, 0.018103431910276413, 0.060631416738033295, -0.0472026951611042, -0.07530892640352249, -0.03984501212835312, -0.04788219556212425, 0.022788049653172493, -0.03206028416752815, -0.014770811423659325, 0.038198504596948624, 0.05681364983320236, -0.01564614661037922, -0.028551604598760605, -0.0002631070383358747, 0.07150845974683762, 0.027046319097280502, -0.018140966072678566, 0.00015954684931784868, 0.0592585988342762, -0.08088890463113785, -0.0642588809132576, 0.06414803117513657, 0.05960213392972946, 0.07299214601516724, -0.07728199660778046, -0.06413355469703674, -0.03933248296380043, 0.04116472229361534, 0.04747695103287697, 0.08119255304336548, 0.0017025662818923593], [-0.048468321561813354, 0.050684161484241486, 0.04103388264775276, 0.02648855745792389, -0.024716805666685104, -0.03865763917565346, 0.00516126723960042, -0.0017346354434266686, 0.040457841008901596, 0.007931694388389587, -0.0005418077344074845, 0.037556182593107224, 0.033714659512043, 0.08309420198202133, -0.009344490244984627, -0.048011694103479385, 0.011744502931833267, 0.01187345664948225, -0.05459394305944443, 0.02136300876736641, 0.01688246801495552, 0.07272478193044662, 0.004739886615425348, -0.02653922699391842, -0.0500318817794323, 0.03616302087903023, 0.060461483895778656, 0.029359597712755203, -0.07242074608802795, 0.10254272073507309, 0.0027856503147631884, -0.028806615620851517, -0.055690862238407135, -0.0697711631655693, 0.04694473370909691, -0.016766712069511414, 0.01990690641105175, 0.013702677562832832, -0.027087491005659103, 0.01368812657892704, 0.018023673444986343, 0.005988833494484425, 0.00808746088296175, 0.06192152202129364, 0.0878739133477211, -0.04968707635998726, -0.07566586881875992, -0.016336893662810326, 0.016206925734877586, 0.020159795880317688, 0.06013236194849014, -0.07767625898122787, 0.008219045586884022, 0.024213846772909164, 0.008564121089875698, -0.0433410108089447, -0.09962189197540283, 0.00403546541929245, 0.09071420878171921, 0.06200471892952919, 0.11716864258050919, 0.0767744928598404, 0.016477743163704872, -0.02671639807522297, -0.043920714408159256, 0.05585143715143204, -0.04786624014377594, -0.0026606302708387375, -0.0504290945827961, 0.05485749989748001, 0.070237897336483, 0.02047836408019066, 0.04661661013960838, 0.06010783091187477, -0.05292568355798721, -0.041878800839185715, -0.052776649594306946, -0.04791458696126938, 0.02217486873269081, -0.11176460981369019, -0.062188535928726196, 0.030792780220508575, 0.01118286233395338, -0.03274200111627579, -0.05113249272108078, 0.06815724074840546, -0.05921103060245514, 0.0040032221004366875, 0.06434587389230728, -0.05884069204330444, -0.04915078729391098, 0.03137192130088806, 0.0606684610247612, -0.03275268152356148, -0.037339355796575546, -0.0690620020031929, -0.05376935377717018, 0.05362429842352867, 0.09176412224769592, -0.061612773686647415, 0.09148457646369934, 0.09000002592802048, 0.08487033098936081, 0.022807039320468903, 0.08050297945737839, -0.07010018825531006, 0.06325782835483551, -0.09824381023645401, -0.042399656027555466, -0.0012036612024530768, -0.016375502571463585, -0.02710992842912674, 0.04955803602933884, 0.0624348446726799, 0.0797191858291626, 0.07830240577459335, -0.06774552166461945, -0.01588682271540165, -0.012219835072755814, -0.02173716016113758, -0.04567793011665344, -0.03544875606894493, 0.023490475490689278, 0.03727826103568077, -0.05614406242966652, 0.014495555311441422, 0.06126273795962334, 0.0409289114177227, 0.02385115437209606, -0.06644581258296967, 0.02109210193157196, 0.05593283846974373, 0.04734846577048302, 0.08535200357437134, -0.09435715526342392, 0.04640178382396698, -0.06468677520751953, 0.09680205583572388, -0.07233556360006332, 0.044421806931495667, -0.002288221614435315, 0.0392899215221405, 0.03348647058010101, -0.061513908207416534, -0.04444003850221634, 0.0011040045646950603, -0.026402046903967857, 0.02377527579665184, -0.03506520763039589, -0.08724068850278854], [0.027764109894633293, -0.059162165969610214, -0.04415499418973923, -0.06354811787605286, -0.018063727766275406, 0.02507905475795269, 0.009771612472832203, -0.023482615128159523, 0.04731471464037895, 0.13686612248420715, 0.05346694961190224, -0.000634426309261471, 0.014848311431705952, -0.016252515837550163, -0.07521986216306686, 0.11037991940975189, 0.05363371968269348, 0.059245139360427856, -0.05126620829105377, -0.003415429964661598, -0.0027694441378116608, 0.055109843611717224, 0.09339591860771179, 0.1146712675690651, -0.030552713200449944, 0.053937699645757675, 0.032138895243406296, 0.07900838553905487, -0.15902020037174225, 0.034946102648973465, 0.027375929057598114, -0.060030654072761536, 0.11209437996149063, -0.02291216142475605, 0.030476313084363937, -0.03443772345781326, 0.09272494167089462, 0.0008543392759747803, -0.03170860931277275, 0.05559053272008896, 0.13534703850746155, -0.040787190198898315, 0.004758122842758894, 0.03525889292359352, 0.07952912896871567, -0.03534260019659996, 0.019294388592243195, 0.05985128507018089, -0.0053604645654559135, 0.01773696206510067, 0.026758115738630295, 0.04081419110298157, 0.007892596535384655, -0.04577433690428734, 0.02313278429210186, -0.06922359764575958, 0.08410089462995529, 0.02911316603422165, 0.0244891420006752, 0.07526086270809174, -0.05383528769016266, 0.018784668296575546, 0.08780233561992645, -0.09129822999238968, -0.12446196377277374, -0.007889600470662117, 0.06468666344881058, 0.0972914844751358, -0.05227367579936981, 0.13099226355552673, 0.04193554073572159, -0.032806381583213806, -0.025030260905623436, -0.07124138623476028, -0.004513524007052183, -0.048338234424591064, -0.05215700715780258, 0.07335064560174942, -0.07381246984004974, -0.1633920967578888, 0.013822231441736221, -0.04590432718396187, -0.1082843691110611, 0.12411492317914963, 0.015520457178354263, 0.1015506386756897, 0.09206373244524002, -0.0413726270198822, -0.02305198274552822, -0.012973151169717312, -0.04462360218167305, 0.06739048659801483, 0.05564963072538376, 0.09819985926151276, -0.03248516097664833, 0.01459802407771349, 0.006843098904937506, 0.10128817707300186, 0.004909604322165251, 0.03370149806141853, -0.0457855723798275, 0.13526296615600586, -0.07493435591459274, -0.055828649550676346, -0.0009430923964828253, -0.11585276573896408, 0.055115796625614166, 0.04127264395356178, -0.007860234938561916, -0.0650111585855484, -0.047254156321287155, -0.026798205450177193, 0.026687394827604294, -0.10305792093276978, -0.05554695799946785, -0.016613919287919998, -0.013646203093230724, -0.0782337412238121, 0.11838016659021378, -0.02811015397310257, 0.1599474847316742, -0.028936943039298058, 0.07981469482183456, 0.015545709058642387, -0.032204411923885345, -0.042792730033397675, -0.08566688746213913, -0.0015804461436346173, 0.05762733519077301, -0.021347248926758766, 0.04884926602244377, 0.07448335736989975, 0.03362906351685524, 0.03722640499472618, 0.12935051321983337, 0.10863591730594635, 0.057642899453639984, -0.03609625622630119, 0.07448911666870117, 0.07763326913118362, -0.0007024395163170993, -0.024793924763798714, 0.06778544932603836, 0.011395074427127838, 0.06479708105325699, 0.018533343449234962, 0.007870173081755638, 0.10355661064386368, 0.035922784358263016, 0.10393702983856201], [0.060184743255376816, 0.03888540714979172, 0.02407846972346306, 0.052601318806409836, 0.016534317284822464, 0.03600425273180008, -0.048490144312381744, -0.021158743649721146, 0.03468617796897888, 0.08500998467206955, -0.010783753357827663, 0.013078875839710236, -0.018971102312207222, 0.048165109008550644, -0.06948656588792801, -0.05815700814127922, -0.0705244392156601, 0.0224087443202734, 0.07055593281984329, 0.0010699437698349357, -0.07941586524248123, -0.08113639056682587, -0.06217307224869728, -0.05848081409931183, 0.0246150940656662, -0.015517586842179298, -0.08582860231399536, 0.017360713332891464, -0.03907150775194168, 0.004259208682924509, -0.028874101117253304, -0.0544535331428051, -0.01623253896832466, 0.030348559841513634, 0.06886032223701477, 0.050446853041648865, 0.0523555614054203, -0.044025637209415436, 0.019309639930725098, -0.08143050223588943, 0.02708972431719303, 0.013929213397204876, -0.052696771919727325, -0.04693038761615753, 0.039836276322603226, -0.04258327558636665, 0.004661937709897757, -0.0797625407576561, 0.06264959275722504, 0.04775218665599823, -0.037031542509794235, -0.025990895926952362, -0.06353997439146042, -0.07462437450885773, 0.0707794800400734, -0.04791199043393135, 0.023861143738031387, 0.06526381522417068, -0.08054175227880478, -0.07927905023097992, -0.05161679536104202, 0.006231760140508413, -0.0820055902004242, 0.043783608824014664, 0.06740954518318176, 0.06885232776403427, 0.01998887211084366, -0.03151608631014824, 0.04247903823852539, -0.04796409234404564, 0.06165356934070587, 0.01891925372183323, 0.04436466470360756, -0.006786475423723459, 0.056344009935855865, 0.058261483907699585, -0.03544171154499054, 0.06952857226133347, -0.022705454379320145, 0.017747975885868073, 0.009825894609093666, 0.07334906607866287, 0.06969728320837021, 0.012377612292766571, 